54678 200
</s> -0.002500 -0.000685 0.001188 -0.000486 0.000043 0.002233 -0.000953 -0.000410 -0.000178 0.000644 -0.000841 -0.000598 -0.000901 -0.000166 0.001279 0.000485 -0.000986 0.001441 -0.002061 -0.001343 -0.001647 -0.000913 0.000388 -0.000187 -0.001431 -0.001491 -0.001113 -0.000718 0.000803 -0.000022 -0.000412 0.002154 -0.000451 0.001525 -0.000838 0.000923 -0.000690 -0.001399 0.000676 0.001293 -0.001126 0.001008 -0.001155 -0.002223 0.000144 0.000556 -0.000885 -0.001312 -0.001266 0.001229 0.001184 0.001755 0.000196 -0.001819 0.000312 0.001774 0.000448 0.001570 0.001056 0.001708 -0.001393 -0.002333 -0.000185 -0.002354 0.000861 -0.001898 -0.000968 -0.001860 0.002413 0.001520 -0.001236 -0.000549 -0.002352 -0.002100 0.000053 -0.000183 0.001918 0.002137 0.001236 -0.001366 0.001462 -0.000190 -0.001819 -0.001038 0.001075 -0.000461 0.001148 0.000450 0.000356 -0.001845 0.001595 -0.002020 -0.000401 -0.002239 -0.000757 -0.002237 0.000629 -0.000831 -0.002499 0.001146 0.002297 -0.001505 -0.002256 0.002072 -0.001132 0.002182 -0.000572 -0.000862 -0.000867 -0.000298 -0.002061 -0.000476 -0.002080 -0.001793 0.002184 0.001659 -0.000146 -0.002427 -0.002046 -0.000986 -0.002286 0.002153 0.000219 -0.002363 0.000577 -0.002111 0.000063 -0.002430 0.002404 0.000597 -0.000158 0.000106 -0.000995 0.001997 0.000810 -0.001542 -0.001222 -0.000373 0.000368 0.002476 0.000719 0.000348 -0.001198 -0.000513 0.000639 -0.000072 -0.000862 0.001721 0.002386 0.001312 0.000631 0.000965 0.000869 0.002238 0.002284 -0.001028 0.002082 -0.002040 -0.000860 0.001311 -0.000315 0.002297 -0.001487 0.001596 -0.001886 -0.001610 -0.001828 0.001057 0.001628 -0.002231 -0.001753 -0.000582 0.002269 -0.001465 0.000879 0.000842 0.001168 -0.002331 0.000403 -0.000797 -0.001497 0.001117 -0.001257 -0.001869 0.000178 0.001636 0.001052 0.000710 0.000256 0.001782 -0.000648 0.000995 0.001324 -0.001636 0.002224 0.000630 -0.001169 0.000881 -0.002175 -0.002359 
. -0.076899 -0.050525 0.020161 -0.027242 0.042757 -0.055451 0.037206 -0.061342 0.029792 0.006237 0.020497 0.037317 0.106580 -0.070694 0.023966 0.054098 0.024367 -0.038267 0.049901 0.035791 0.138239 0.030877 -0.034031 0.089777 -0.049918 0.000077 0.063826 0.105378 -0.039801 -0.050173 -0.068293 0.040992 0.073621 0.085124 0.121173 -0.066711 0.034161 -0.025584 -0.029831 0.020041 -0.076493 0.014051 0.068650 0.071675 -0.068145 0.000285 -0.073884 -0.003926 -0.037665 -0.115342 0.067947 -0.063718 0.083987 -0.159299 0.001918 -0.137612 0.172841 -0.013951 0.039423 -0.046304 -0.052276 0.041274 -0.024119 0.004211 -0.033153 -0.062701 0.003139 -0.066679 -0.012883 -0.022549 0.051765 0.136335 0.029977 0.156799 -0.022272 0.052406 -0.142618 -0.001436 0.137821 -0.020513 0.094120 -0.031726 -0.055692 -0.035897 -0.074127 0.001277 0.072042 0.060020 -0.024077 -0.047726 -0.011823 0.132971 -0.083016 0.036127 -0.071790 -0.085083 0.038611 0.072146 0.029481 0.079078 -0.064132 0.071204 -0.074142 0.018882 0.131109 -0.021882 0.064343 0.027548 0.058649 -0.048948 0.039256 -0.023891 0.015437 -0.013256 -0.021024 0.024155 -0.007140 0.030007 0.081525 -0.035250 -0.014803 0.004600 -0.001468 -0.075365 0.011263 0.070802 0.072406 0.038780 0.029680 -0.045467 -0.137983 0.006745 -0.042618 0.116205 0.047338 -0.018804 -0.017762 0.003748 0.140883 -0.022410 0.061502 -0.054318 0.119896 0.076631 -0.036951 0.095719 0.030599 0.022768 0.125057 0.032090 0.100424 -0.055811 -0.067970 0.082029 -0.133550 0.066846 0.012666 -0.020219 -0.070405 0.014951 0.055176 -0.050279 -0.017963 0.088945 0.138409 0.027887 0.098774 -0.022198 0.137117 -0.022006 -0.022713 0.095420 0.022676 0.024298 0.061240 -0.041269 -0.087209 0.015242 -0.002972 -0.083911 -0.089410 -0.001087 0.074918 -0.003446 -0.093627 -0.031409 0.040980 0.001450 0.088474 0.056581 0.025346 -0.029212 0.078920 -0.028032 -0.021044 0.135974 -0.026006 -0.131356 0.039493 0.031323 
, 0.049229 -0.082312 0.080300 -0.073476 0.042822 -0.039118 -0.014388 -0.030107 -0.060452 -0.021324 0.009116 0.042036 0.043323 0.001810 0.007713 0.009270 -0.033077 -0.083999 -0.023901 0.028521 0.000657 0.125221 0.002573 -0.049574 0.074006 0.003915 0.047797 0.104009 0.091490 -0.020489 -0.083400 -0.034618 0.022701 0.145510 0.043554 0.035638 0.082975 -0.113583 0.037507 0.007267 -0.037645 0.112414 0.055424 -0.051802 -0.082851 -0.023288 -0.096539 -0.032696 -0.020192 0.051357 -0.009541 0.014496 -0.005382 -0.097894 -0.044596 -0.056339 0.062535 0.027411 -0.000299 -0.015968 -0.086508 0.055083 -0.054914 -0.042305 0.049670 -0.093828 -0.057402 -0.052201 0.022190 -0.046638 0.047339 0.112117 -0.038989 0.059323 0.018920 0.019926 -0.083960 -0.090460 -0.024599 -0.079329 -0.010389 0.007050 0.045779 0.033341 -0.035407 -0.060620 0.044370 -0.039770 -0.004610 -0.005539 -0.030732 -0.003984 -0.044192 0.018676 -0.012729 -0.022813 -0.018759 -0.011187 0.077768 0.104893 0.066311 0.032734 -0.043375 0.078014 -0.022918 -0.046082 0.043008 0.054883 0.001661 -0.059479 0.057114 0.008542 -0.070922 0.011497 0.135540 -0.054343 0.028070 0.076867 -0.076900 -0.113178 -0.044591 -0.051659 -0.009946 -0.019972 -0.010507 -0.050741 -0.035275 0.001073 -0.035929 0.030695 0.041464 -0.088444 -0.052526 0.046553 -0.054984 -0.093428 -0.069220 0.018667 0.061549 -0.073197 0.072909 -0.072768 0.027365 0.020777 -0.064614 0.001006 0.026409 0.059833 0.102563 -0.089422 0.046244 -0.073750 -0.003055 0.047709 -0.038362 0.066545 0.001002 0.079110 -0.031489 -0.054968 0.034180 -0.022242 -0.019533 0.079189 0.067602 -0.049045 -0.006309 0.071856 0.066859 -0.004030 0.021882 0.053494 -0.044439 0.055314 0.009957 -0.058099 0.030081 -0.047105 0.027780 0.029606 -0.041477 0.037021 0.130293 -0.031356 -0.048547 -0.006157 -0.007210 -0.024586 0.055261 0.102492 -0.012020 0.040720 0.070325 -0.050097 -0.058259 0.127880 -0.057788 -0.150469 0.096766 -0.062140 
<s> 0.003857 -0.051395 0.065301 0.055116 0.022697 -0.047398 0.079112 0.028734 -0.104701 -0.033769 -0.014759 0.095015 0.101289 0.005339 -0.047005 -0.085836 -0.018644 0.055426 -0.044655 -0.035472 0.042963 -0.022300 0.083506 0.023698 0.107932 0.043778 0.075036 0.012902 -0.018284 -0.095978 0.007495 -0.072004 -0.003835 0.111374 0.008813 -0.026567 -0.050150 -0.026523 -0.156347 -0.022222 -0.166416 0.027222 0.031431 -0.060781 -0.100999 -0.004668 -0.059446 -0.011880 0.006517 -0.082560 -0.097822 0.108085 0.072282 -0.128146 -0.002013 -0.149473 -0.017296 -0.030782 -0.087429 0.083519 0.019062 -0.020242 -0.048729 0.017591 -0.136077 -0.013799 -0.066572 -0.000381 0.019993 -0.029638 0.014767 0.122554 -0.024826 -0.036446 -0.079739 -0.041373 -0.087607 -0.036936 0.065164 -0.062448 -0.006992 -0.076327 0.120473 -0.024056 -0.042103 -0.074565 0.044318 0.093338 -0.065800 -0.043058 0.088134 0.087345 -0.051888 0.047879 -0.065317 -0.194765 0.159973 0.029322 -0.005048 -0.009141 -0.052519 0.083753 -0.094973 0.020079 0.027913 -0.070512 0.001272 0.010909 -0.029373 -0.029401 -0.043128 -0.021503 0.092862 -0.013283 -0.095832 0.001438 0.122470 -0.018436 0.078028 -0.072869 -0.014418 -0.044101 0.054956 -0.081276 -0.000718 -0.010638 -0.057932 0.044076 -0.076862 0.015990 -0.040271 -0.023860 0.055289 0.100480 -0.068000 0.029362 0.083772 0.008684 0.219976 -0.007085 0.002093 0.016842 0.023157 0.035347 -0.073964 0.025243 0.078826 -0.072877 0.102285 0.009009 0.048192 -0.081273 0.083421 -0.002233 0.004893 -0.030104 -0.059922 0.012516 -0.004399 -0.032904 -0.050707 0.110113 -0.083567 0.237103 0.059900 -0.059657 0.047065 -0.005455 0.157043 -0.066581 -0.064077 0.143157 0.016246 -0.122308 0.031953 -0.109617 -0.080159 -0.010075 -0.090572 0.068989 -0.113461 0.064404 0.027541 -0.026043 -0.149283 -0.035282 0.042923 -0.012926 0.034073 0.098309 0.028285 -0.030422 0.009483 -0.136428 -0.050113 0.103840 -0.087880 -0.147479 0.117224 -0.103949 
و -0.016079 -0.061080 0.037131 -0.043642 -0.011381 -0.081055 -0.071916 0.001488 0.081270 -0.045004 0.021782 0.021810 0.060614 -0.027327 0.020383 0.049426 -0.046009 -0.117152 0.035657 -0.024922 0.009999 0.085217 0.078943 0.024002 0.095255 0.048547 0.050099 0.060600 0.077918 -0.101970 -0.075364 0.042095 -0.016395 0.039037 0.067799 -0.016901 0.015637 -0.042344 -0.009378 0.003564 -0.033508 0.010379 0.106118 -0.080496 -0.075510 -0.045155 -0.010241 -0.075077 -0.011141 0.098988 -0.081058 -0.060211 0.053114 -0.116789 -0.017614 -0.086389 0.110143 0.028169 -0.069789 -0.018008 -0.058228 0.011189 -0.039592 0.014548 0.010723 0.017518 -0.034936 -0.011135 -0.039080 0.064365 0.091711 0.066285 -0.012791 0.090103 -0.031971 0.028488 -0.043987 -0.055033 0.003570 -0.126698 0.059543 0.070693 0.022174 -0.070985 0.021290 0.029299 -0.003278 0.059499 0.022547 -0.012963 -0.009078 -0.054200 0.025278 -0.034255 -0.037019 -0.068233 -0.003032 0.048247 -0.017717 0.100378 -0.067251 0.056034 -0.072591 0.043599 0.065749 -0.013525 0.029719 0.032463 -0.015103 -0.051181 -0.019479 0.036171 0.046327 -0.019021 0.078220 0.049033 -0.017221 -0.020947 0.007294 -0.046144 -0.082861 -0.053116 0.024641 -0.012282 -0.014429 0.021010 -0.061797 -0.007523 -0.043583 0.040726 -0.099006 -0.055884 -0.051232 -0.046871 0.027681 -0.072712 0.028937 0.051110 0.092737 -0.049357 0.071476 0.056340 -0.012371 0.087193 0.030927 0.033892 0.069673 0.019559 0.094241 -0.053232 -0.030276 0.041000 -0.001860 -0.006032 -0.077268 0.074026 0.062460 0.055432 -0.089366 0.009156 0.048368 0.035897 0.021324 -0.035542 0.112871 -0.025857 0.074843 0.058469 0.072803 -0.017921 0.087970 0.205634 -0.079530 0.070383 -0.035396 -0.059215 -0.031080 0.052619 -0.006586 -0.007559 -0.091514 0.048080 0.108389 0.065369 0.059734 -0.099834 -0.079252 0.116511 0.045285 0.030373 0.076067 0.012665 0.001850 -0.023157 -0.085455 0.029652 -0.013382 -0.138083 0.130802 -0.101084 
the 0.068796 -0.098928 -0.010015 -0.078342 0.030037 -0.072974 -0.065359 -0.027124 0.075489 -0.042284 0.026256 0.083450 0.081570 0.078407 0.023491 0.011860 0.002235 -0.132522 -0.017466 0.072402 0.048031 0.093748 0.072102 0.061602 -0.015366 -0.024003 0.064499 0.155938 0.147243 -0.076428 -0.066024 0.062383 0.062853 0.117287 0.048388 0.027424 -0.001370 -0.043693 0.101015 -0.030676 -0.002103 -0.029225 0.006143 0.137140 -0.139739 0.035351 0.080043 -0.009124 0.068659 0.027390 0.039535 -0.018511 0.035909 -0.062994 -0.054435 -0.031237 -0.039207 0.072910 -0.078092 0.057538 -0.045622 0.043155 -0.037925 -0.068838 0.117445 -0.041860 -0.022171 -0.031490 -0.058450 0.033486 0.012304 0.109504 0.001524 0.139236 -0.035310 0.044756 -0.009657 -0.120344 0.080723 -0.036411 0.035417 0.098932 0.019720 -0.031106 -0.010871 -0.088632 -0.009724 -0.097009 0.030186 0.033209 0.026306 -0.000716 -0.145303 -0.024206 -0.039898 -0.012034 -0.007538 -0.002507 -0.078566 0.012946 -0.031255 0.063274 0.005393 0.064961 0.030842 -0.076885 0.048972 -0.059052 0.052925 -0.076376 0.009247 -0.060640 -0.010329 0.084709 0.074450 -0.000592 -0.005741 -0.000978 -0.026166 0.009346 -0.081852 -0.038714 0.035888 0.075533 -0.023865 0.031766 -0.082974 -0.013339 -0.011475 0.041514 -0.028755 0.072103 0.027697 -0.056164 0.094695 -0.149854 -0.006349 -0.011857 0.114981 0.051528 0.063961 -0.042611 -0.047533 0.100603 -0.052216 0.069005 -0.039228 0.035418 0.168856 0.015961 -0.038938 0.011787 -0.014921 0.062448 -0.093708 0.171994 -0.029718 0.073650 -0.127414 0.017718 0.038577 -0.016513 -0.029074 -0.049928 0.085230 -0.062329 0.127140 -0.008245 0.098268 -0.127785 0.022752 0.027923 0.013715 -0.057482 -0.049951 0.031478 0.031166 0.049646 -0.118959 -0.025440 0.046533 0.114961 0.084369 -0.048257 0.053009 -0.047343 -0.096120 0.023386 0.104389 -0.069374 -0.024881 0.012180 0.035542 -0.040683 -0.000247 0.121378 0.010902 -0.171143 0.065909 0.026203 
، 0.098202 -0.060740 -0.031529 -0.124569 0.010671 -0.074360 -0.040994 0.011107 -0.061340 -0.054224 0.047542 0.107976 0.063881 -0.009890 0.018064 0.050813 -0.058298 -0.078290 0.023441 0.054952 -0.038432 0.131124 0.027845 0.009373 0.003902 -0.016209 0.007493 0.103939 0.053151 -0.037824 -0.057522 0.065789 -0.010451 0.068716 -0.009752 0.023715 0.082238 -0.099907 0.006117 -0.048023 -0.062789 0.112459 0.064006 0.001295 -0.064585 -0.018566 -0.040535 0.002562 -0.029225 0.046647 0.011954 0.008499 0.042887 -0.100797 -0.003364 -0.089654 0.074037 0.025834 -0.030082 -0.023636 -0.031813 0.060546 -0.094278 -0.069272 0.031049 -0.059943 0.017935 -0.050318 -0.011091 0.006214 0.082018 0.128302 -0.084886 0.085339 -0.026939 0.075364 -0.023253 -0.068732 0.036906 0.022334 0.013023 0.028430 0.078502 -0.051767 0.031147 -0.030460 0.017397 0.069358 -0.047745 -0.058594 -0.103221 -0.025977 -0.018965 0.045213 0.006978 0.030393 0.068365 0.067961 -0.048728 0.099109 0.088389 -0.042886 -0.128243 0.026712 0.000842 -0.047788 0.100183 0.052850 0.075147 0.110563 0.000753 -0.019597 -0.078766 0.092435 0.014585 -0.049582 0.041300 0.092303 -0.037750 -0.088312 -0.002544 -0.045040 -0.001987 -0.010108 -0.042781 0.004080 -0.004271 -0.051771 -0.014606 0.012148 -0.016710 -0.029206 -0.050744 0.037385 -0.037470 -0.081573 -0.078923 -0.018377 0.098976 -0.112513 0.021892 -0.055965 0.021908 0.061069 0.031517 0.063327 0.037254 0.038098 0.065550 -0.080723 0.042024 -0.102769 0.020133 0.077235 -0.038317 0.080610 -0.045340 0.055194 -0.115503 -0.038085 0.174039 -0.022082 0.060273 0.085864 -0.000982 -0.089444 0.077369 0.111954 0.071155 0.106563 0.010535 0.084266 0.037087 0.050916 -0.001678 -0.055360 0.029276 -0.081405 -0.069217 0.023948 -0.039865 0.027406 0.088606 -0.018438 -0.042231 -0.113854 -0.026154 0.025412 0.056946 0.032436 0.053564 0.025351 0.009384 -0.046381 -0.115289 0.141704 -0.020032 -0.182363 0.110530 -0.012410 
and 0.023648 -0.060785 0.055939 -0.118294 0.054359 -0.064599 -0.014374 -0.006408 -0.041763 -0.105691 0.064086 0.023390 0.085779 -0.040964 0.020831 0.099311 0.006072 -0.086515 -0.022064 -0.082158 0.073864 0.172367 0.071879 0.021190 0.082548 -0.076444 0.025436 0.043782 0.069856 -0.016583 -0.025916 0.068038 -0.025265 0.046782 -0.006642 0.022115 0.030221 -0.109718 0.107424 0.039946 -0.007314 0.042807 0.040005 0.032934 -0.162733 0.018615 0.044965 -0.029247 -0.008012 -0.041500 -0.035741 -0.057842 0.078988 -0.078489 -0.055758 0.000062 0.046705 -0.033517 -0.001854 -0.048970 -0.151412 0.072160 0.013960 -0.075782 -0.009178 -0.045722 -0.038838 -0.020663 -0.119567 -0.008477 0.020619 0.071831 -0.100309 0.090779 -0.040467 0.025622 -0.059223 -0.115421 0.027071 -0.157131 0.038370 0.058743 0.094847 -0.064940 -0.127137 -0.014422 -0.025201 0.030375 -0.119340 0.027263 -0.074659 0.041035 -0.094104 0.003020 -0.067632 -0.035739 0.078490 0.020959 0.006978 0.060928 -0.023556 0.071746 -0.059559 0.071027 0.065697 -0.087819 0.051897 -0.005535 0.040176 -0.030329 -0.006063 -0.008176 -0.037905 -0.008366 0.101626 -0.039559 -0.015238 0.015470 -0.037302 -0.026586 -0.096443 -0.026522 -0.029886 -0.104244 0.047444 0.094533 -0.058117 0.044979 0.005136 0.022939 0.025494 -0.018630 -0.062929 -0.055531 0.069154 -0.101094 0.007969 0.012795 0.096987 -0.020004 0.106734 -0.027922 0.025611 0.074580 0.041844 0.011011 0.041120 -0.048931 0.038284 0.027653 -0.033670 -0.001922 -0.027844 0.041996 -0.003794 0.001966 0.032152 -0.078739 -0.091326 -0.059789 0.060745 -0.032260 0.046050 0.083019 0.141198 0.009552 0.108088 0.023557 0.075838 -0.068159 0.050652 0.077252 -0.020461 0.057866 -0.020543 -0.053804 -0.061800 -0.010769 -0.019494 -0.083947 -0.107890 0.051813 -0.026200 0.002157 0.033756 -0.010812 0.004050 -0.016881 0.086334 0.082280 0.083189 0.004398 0.008683 0.059048 -0.118662 0.133508 -0.000354 -0.159899 0.061141 -0.033298 
ل -0.025809 -0.097308 0.086261 0.069634 0.125296 -0.076224 -0.006724 -0.049920 -0.035999 0.060226 0.071258 -0.019099 0.061259 -0.093335 0.016575 -0.065122 -0.074924 0.076209 0.104215 0.060821 0.152351 0.058129 0.010077 0.111351 0.059573 -0.024119 -0.024009 0.146198 -0.001427 -0.062010 0.031926 0.052281 -0.072507 0.084856 0.112445 0.017474 0.057869 -0.176116 -0.025200 0.080150 -0.109349 0.092388 0.014455 0.130957 -0.142887 0.062375 -0.034660 -0.036977 0.012973 -0.021243 -0.010991 -0.005916 0.061626 -0.098498 0.069724 -0.214476 -0.042227 -0.021644 -0.077286 -0.025126 -0.017332 0.012642 -0.008457 -0.090080 -0.079682 0.001693 -0.010037 0.019032 0.012833 -0.022912 -0.063690 0.105924 -0.018209 0.135757 -0.062585 -0.016985 -0.000744 -0.026439 0.063168 -0.051443 0.013105 0.054383 0.019748 -0.160190 0.008158 0.014885 0.113341 0.095338 -0.038668 -0.003644 0.052557 0.036111 0.072317 0.065460 -0.006118 0.026959 0.109854 -0.023387 -0.061004 0.114426 -0.011009 0.038860 -0.062062 -0.000892 -0.041762 -0.116121 0.069293 -0.008484 0.059296 -0.058335 -0.086226 -0.010982 -0.053797 0.040685 0.029054 0.003375 -0.140670 -0.037204 0.040377 -0.027602 0.103841 -0.005068 0.021155 -0.050328 0.020925 0.011742 -0.018268 0.053242 0.032567 0.006904 -0.084776 -0.033006 -0.045723 0.033854 0.041405 0.043827 0.009166 -0.041320 0.130291 0.034157 0.039662 -0.146832 0.157882 0.178279 -0.116107 0.187160 -0.113799 0.090906 0.099705 -0.022400 0.009022 -0.142301 0.008373 -0.008170 -0.052267 0.015388 -0.025982 0.138982 -0.006998 -0.090333 0.011434 -0.045115 -0.106432 0.064171 0.209915 -0.025798 -0.000308 0.074486 0.078785 -0.022261 0.005520 0.110890 -0.033469 0.086990 0.059569 0.094210 -0.090844 0.031720 -0.045737 -0.032501 -0.107524 -0.034081 0.115057 -0.080263 -0.025254 -0.007719 -0.054755 0.068530 0.022865 0.081903 0.028250 0.034779 0.086429 0.014943 -0.097846 0.053654 -0.052533 -0.208208 0.258037 -0.119656 
ب -0.071881 0.020598 -0.012327 -0.032425 -0.060703 -0.104621 0.019789 -0.066478 0.046642 -0.110442 0.078378 0.016289 0.089994 -0.128566 0.099481 0.061901 0.059100 -0.026936 -0.012767 0.021309 -0.044588 0.118607 0.049072 -0.005639 -0.015996 -0.025322 0.083046 0.034906 0.028917 -0.181513 0.017338 0.024595 0.001902 0.087270 0.040826 -0.058368 0.079862 0.001388 0.031167 -0.023351 0.057482 0.026722 0.064369 -0.012757 -0.079032 -0.029461 -0.093449 -0.004820 0.100022 0.097161 -0.022544 -0.022777 -0.044208 -0.091724 0.034176 -0.081098 0.004753 -0.034921 -0.042835 -0.061109 -0.104021 0.013326 -0.005719 -0.090194 -0.051755 -0.106218 -0.079669 -0.010621 -0.026880 -0.020146 0.009252 0.055815 0.028223 -0.000917 -0.011003 0.044435 -0.011089 -0.007435 0.006424 -0.156004 0.040808 0.086589 0.046624 -0.049299 -0.011257 -0.017365 0.010086 0.008666 0.045689 -0.096544 -0.036829 0.015509 -0.044754 -0.097816 -0.078637 -0.033840 0.072813 -0.023770 -0.014153 0.033738 -0.069303 -0.008404 0.043551 -0.067915 0.001176 -0.032367 0.118075 0.094552 0.056359 -0.071915 -0.052328 -0.006443 -0.034637 0.083932 0.063388 -0.065537 -0.049096 0.051189 0.080354 -0.106943 -0.124699 -0.091428 0.060460 0.019752 -0.087045 0.090451 -0.045545 0.019879 -0.017816 -0.034024 0.016429 0.006296 -0.060220 0.016574 -0.089119 -0.086205 -0.070294 0.036204 0.129658 0.021990 0.155715 0.036178 -0.008451 0.077287 -0.132779 0.099354 0.015157 -0.031927 -0.002614 -0.035555 0.107323 0.045382 0.053597 0.004138 -0.015305 0.185086 -0.008072 0.049672 -0.126928 -0.085042 0.130677 -0.114053 -0.027390 0.079805 0.105196 -0.007465 0.014904 0.115147 0.060448 -0.026044 0.029814 0.048660 0.011215 -0.012729 0.046060 0.118123 -0.021343 0.062248 0.008741 0.047526 -0.084890 0.103294 -0.026880 0.001411 0.030495 -0.011814 -0.139965 -0.003447 0.033321 0.087302 -0.034837 -0.099815 -0.001949 -0.050032 0.018381 0.163803 -0.017779 -0.139104 0.099500 -0.127417 
to 0.025321 -0.006342 0.046916 -0.056642 -0.008028 -0.161162 -0.019113 0.041278 0.012203 -0.042896 0.022657 -0.018559 0.079674 -0.053193 0.025403 0.072515 -0.028923 0.075734 0.065784 -0.073739 0.051760 0.053714 0.138555 -0.034819 0.109383 -0.083121 0.011046 0.059070 0.102220 -0.095903 -0.029639 0.040828 -0.089106 0.011109 0.060178 -0.001298 0.174441 -0.038618 0.034818 -0.098044 -0.031101 -0.003832 0.090585 0.039671 -0.044514 0.027275 -0.036377 0.079505 0.064826 0.062160 -0.047228 0.091595 0.025410 -0.003606 -0.097996 -0.197441 -0.055350 -0.026229 -0.044077 0.016934 -0.032741 0.036994 0.005416 -0.025092 -0.053718 -0.042985 -0.009556 -0.009877 -0.065454 -0.021136 -0.021380 0.064266 -0.103257 0.001411 0.000335 0.028992 -0.104659 -0.109260 0.038646 -0.189956 0.014805 0.094599 -0.062604 -0.047349 -0.027059 -0.079486 0.083176 0.178035 0.076040 -0.020157 0.077568 -0.061009 -0.082386 -0.036496 -0.004444 -0.101087 0.079543 0.008167 0.026784 0.027036 -0.117294 0.173543 -0.112651 -0.009088 -0.080541 -0.008267 0.022923 0.058596 0.009802 -0.119387 -0.000407 -0.057110 -0.048142 0.035543 0.059984 -0.032656 -0.046989 0.009664 0.066375 -0.175456 -0.031320 -0.025331 0.080947 -0.045167 -0.018490 0.035301 -0.067540 0.086801 0.004167 0.063893 0.065390 0.059001 0.098619 -0.026913 0.026943 -0.042116 -0.033407 -0.008130 0.004864 -0.044456 0.004892 0.016154 -0.020710 0.008458 -0.133552 0.095002 -0.063619 0.072338 0.109464 -0.005416 -0.010351 -0.029379 -0.003814 0.035785 0.002446 -0.032740 -0.054399 -0.038220 -0.037531 -0.123600 0.159122 -0.032895 0.087761 0.015747 0.125941 0.023284 0.088310 0.200890 0.086547 -0.024089 0.029653 -0.037686 0.034195 0.041159 0.066539 -0.042836 -0.096963 0.060292 0.031543 0.022069 -0.160573 -0.064043 0.047377 -0.157157 0.049639 -0.092780 0.106136 -0.019994 0.090553 0.091489 -0.018513 0.066394 -0.035738 0.013865 -0.073501 0.081852 -0.019638 0.012229 0.083534 -0.039464 
في 0.072703 0.016053 -0.000043 0.024168 -0.034072 -0.017761 0.003341 -0.017930 -0.023895 0.034431 0.041869 0.084568 0.048683 0.033650 0.017767 -0.061351 0.006697 -0.051095 0.003499 0.092655 0.091671 0.005034 0.043837 0.029612 0.039946 0.026215 0.075558 0.078826 -0.012317 -0.008586 -0.097492 0.009694 0.067336 0.072177 -0.024398 -0.005470 0.046057 -0.109586 0.094848 0.127081 -0.022169 -0.004595 -0.041885 -0.020846 -0.190477 -0.033378 0.057775 0.008462 0.140665 0.136579 0.039632 0.055930 -0.010022 -0.166289 -0.032368 -0.089443 0.110525 0.104287 -0.007501 0.019329 -0.083142 -0.007947 -0.028839 -0.064700 0.065925 -0.102928 -0.039453 -0.073026 0.019390 0.096765 -0.030839 0.041377 0.061015 0.085821 -0.088022 0.113360 -0.087302 -0.073024 0.002147 -0.084256 -0.033421 0.053535 -0.077342 -0.019041 0.031498 -0.100860 -0.063938 0.024115 -0.003045 0.023539 -0.096050 0.020433 -0.039407 0.096975 -0.016439 0.024253 -0.043704 0.034736 -0.150373 0.063681 -0.040663 0.037564 -0.069744 0.080675 0.043997 -0.051349 0.032771 0.040399 0.005217 -0.053754 -0.060954 0.067560 0.031635 -0.017855 0.023195 -0.034567 -0.116360 0.087748 0.015207 -0.096040 -0.124696 -0.115938 0.041686 0.012277 -0.044527 -0.005523 -0.111182 0.032669 0.045210 0.032803 0.054629 -0.037618 -0.051782 0.061585 -0.075346 -0.147016 -0.116426 -0.024952 0.065984 0.002914 0.061110 -0.066097 -0.119977 0.042743 -0.067872 0.026951 0.047488 0.028371 0.097484 -0.042831 0.001552 -0.026425 -0.068701 -0.004063 -0.270555 0.101689 0.013010 0.020680 -0.112027 -0.066526 -0.006193 0.161179 0.068169 -0.020440 0.061317 -0.033779 0.028038 0.067791 0.057869 -0.056540 0.078157 0.046062 -0.043557 -0.039897 0.034910 0.024948 0.021825 0.042840 -0.079252 -0.069435 0.054436 0.094312 0.138181 -0.110799 0.024171 -0.008653 0.016054 0.027919 0.240490 -0.068076 0.048582 -0.055172 0.123582 -0.001046 -0.000168 0.086543 -0.000027 -0.105536 0.142636 -0.115104 
of 0.006635 -0.045658 0.053013 -0.159734 0.019662 0.016373 -0.084952 -0.047506 -0.109840 -0.039989 0.060436 0.111718 0.132616 0.021609 0.088622 0.016616 -0.015847 0.026723 0.109324 0.115434 0.081726 0.088079 -0.054083 0.096300 0.070242 0.050006 0.084381 0.114125 0.099596 -0.053428 -0.025530 0.005969 -0.035957 0.114396 0.145881 -0.031390 0.006429 -0.065730 0.210035 0.112139 0.006587 0.054402 -0.102692 -0.066356 -0.022314 -0.026955 0.014539 -0.084425 0.059505 0.057850 -0.010293 0.013995 -0.013223 -0.036734 0.069578 -0.101240 -0.000092 0.023177 0.019766 0.068444 -0.021622 -0.056536 -0.076033 -0.027697 0.051203 -0.021098 -0.098707 0.050184 -0.046502 0.039719 -0.090580 0.037001 -0.068928 0.149054 -0.113597 0.095484 -0.044261 -0.054731 0.071566 0.038430 0.034980 0.032946 -0.030803 0.026879 -0.001145 -0.004506 0.051142 0.049346 0.052465 0.011124 0.046565 -0.066046 0.000486 0.050932 0.053379 -0.015328 -0.040985 0.036743 0.050462 0.075345 -0.056666 0.040133 -0.066166 -0.005357 0.037775 0.024356 0.016712 -0.069072 0.106890 -0.040644 0.024055 0.014866 -0.032579 -0.028566 -0.011218 0.071180 0.044424 0.037834 -0.016775 -0.119353 -0.097085 0.028428 -0.005070 0.005595 -0.043386 -0.120148 -0.128480 0.006675 -0.046340 -0.113892 -0.007543 0.005391 -0.053348 -0.059311 -0.084894 -0.113648 0.011165 -0.011404 0.102989 -0.102310 -0.026930 -0.020234 -0.071113 0.010662 -0.001070 0.099913 0.064215 -0.026301 0.043208 -0.076497 0.082397 -0.036031 0.043778 -0.032497 -0.097297 0.000576 -0.007818 -0.025517 -0.110443 -0.079947 0.147426 0.068612 -0.014567 -0.030838 0.147794 0.118479 -0.004071 -0.020013 0.020798 0.013257 0.055163 -0.016616 0.066531 -0.012892 -0.009192 0.050856 -0.025294 -0.009868 -0.005837 0.044839 0.023525 0.218345 0.093402 -0.124494 0.039887 -0.015384 0.066690 0.027306 0.012050 0.059415 0.042423 -0.026781 0.056337 -0.030561 -0.137761 0.147195 -0.111188 -0.235380 0.158372 -0.087098 
a -0.037575 -0.066773 0.101038 -0.128776 -0.001743 -0.099348 -0.111367 -0.002691 -0.065962 0.001647 0.049247 0.023130 0.108722 -0.047421 0.128128 -0.013779 0.085552 0.048205 0.055022 0.100721 0.081129 0.022283 0.004249 0.042841 0.036689 -0.049897 0.003724 -0.002330 -0.060692 0.058423 -0.037357 -0.012700 0.011638 0.110643 0.069457 -0.089516 0.029340 0.035568 0.046334 0.019576 -0.041506 0.068698 0.072410 0.064735 -0.194870 0.056449 0.042952 0.112747 0.061875 0.100732 -0.046117 -0.007593 -0.054355 -0.056404 -0.082732 -0.071310 -0.050855 -0.073938 0.002810 0.081391 -0.032026 0.037982 -0.053475 -0.079958 0.054267 -0.026038 0.003801 -0.108941 -0.013695 -0.054686 0.011711 0.220623 0.019265 0.130172 0.002190 0.135548 -0.041518 0.056336 0.054447 -0.022273 -0.059510 -0.002899 0.069923 0.011738 0.018446 0.071876 0.132954 -0.038159 -0.073230 -0.041977 -0.029813 0.045408 -0.097015 -0.058169 -0.097057 -0.052720 0.082517 0.035915 0.049555 0.122438 -0.105581 0.033781 -0.119724 -0.046250 -0.033244 -0.055619 -0.050482 0.024331 -0.049904 -0.061837 0.018272 -0.007342 0.000678 0.046235 0.142431 -0.041894 -0.030358 0.027105 0.045021 -0.043945 -0.000813 -0.079752 -0.033625 0.017513 0.038230 0.136054 -0.102525 -0.022470 -0.027080 0.041303 0.086606 -0.033479 -0.076177 0.051648 0.006825 -0.093529 0.098750 0.036025 0.089423 -0.133207 -0.059263 -0.138395 -0.033196 0.053541 -0.010652 0.040775 0.024350 0.089937 0.118418 0.103381 0.081294 -0.032647 0.135551 0.011745 -0.097822 0.039905 -0.157146 0.060029 -0.148714 0.062146 0.089617 -0.033304 0.032164 0.060375 0.021788 -0.117543 0.076914 0.005697 0.099927 -0.027690 0.164510 0.023956 -0.016882 -0.013272 0.036060 0.017003 0.044860 -0.037463 0.027275 -0.149784 -0.009723 0.058896 0.047114 -0.088788 0.019423 -0.004443 0.006325 0.078456 0.096255 -0.005322 0.004068 0.042305 0.007842 0.036721 -0.076445 -0.011903 -0.056443 -0.168645 0.059267 -0.061243 
من -0.006474 -0.006828 -0.024066 -0.071285 0.027349 0.009824 -0.000802 0.056921 0.041996 0.018688 -0.023091 0.041382 0.225261 -0.057143 0.002619 0.051029 -0.029650 0.015227 0.012547 0.064431 0.033082 0.148231 0.020791 0.039117 0.080584 -0.044074 0.086705 0.120872 0.064298 -0.109086 0.039281 0.030879 -0.027191 0.143356 0.139938 0.021220 0.017449 -0.008736 0.112374 0.020427 0.014499 -0.015243 -0.008659 -0.096886 -0.166737 -0.019078 -0.010227 0.023308 0.031051 0.129670 0.043589 0.071254 -0.104451 -0.075334 -0.023933 -0.045906 -0.004266 0.061433 0.028390 0.055262 0.033731 0.047397 -0.151098 -0.118927 0.055611 -0.015704 -0.171678 0.082982 0.043900 0.054602 -0.016883 0.051381 0.013271 0.121930 -0.077907 0.089670 -0.116058 -0.074197 0.011698 -0.031923 0.044910 -0.079297 0.032212 0.016168 -0.068226 0.159913 0.070195 0.034243 0.098123 -0.026982 0.055963 0.064505 0.027841 0.116492 0.076238 -0.033218 -0.078662 0.043097 0.115163 0.069845 -0.044226 0.094959 -0.031077 0.038809 -0.059422 -0.053934 0.062572 -0.016947 0.013895 -0.038626 -0.018411 -0.008560 0.066269 -0.029576 0.083246 0.009848 0.015974 0.025158 -0.008153 -0.058668 -0.038320 -0.003138 0.071849 -0.038122 -0.062672 -0.101870 -0.009535 -0.084991 -0.082373 -0.056722 -0.080886 0.029675 -0.105985 -0.034449 -0.010266 -0.021693 -0.008638 -0.013602 0.067517 -0.051225 0.033446 0.031879 0.059469 0.035038 -0.086880 0.061671 0.022450 -0.005482 0.137381 0.022384 -0.063336 -0.091449 0.015314 0.017097 0.005163 0.078239 -0.093093 -0.030649 -0.097235 -0.079381 0.087752 0.086236 -0.079057 0.004604 0.085152 -0.037963 0.036242 0.003218 -0.043257 -0.055806 -0.025020 0.173683 0.062640 0.017307 0.022293 0.075117 0.048103 0.050671 0.039638 -0.043101 0.007329 0.106056 0.091886 -0.199016 0.132825 0.035321 -0.036922 -0.017650 0.007196 0.028840 -0.027038 -0.006884 0.049362 0.109459 -0.020791 0.125243 -0.120468 -0.227068 0.113675 -0.073037 
that 0.009453 -0.095383 0.096041 0.055415 0.041064 -0.062417 -0.061458 -0.003229 -0.042840 -0.117487 0.045650 0.127343 0.065134 0.044133 0.001922 0.127021 -0.047673 0.023193 0.006119 0.090604 0.081870 0.197394 0.032681 0.093441 0.100442 0.011015 0.080242 -0.076285 0.083680 -0.120716 -0.076121 0.041014 -0.070737 -0.005821 0.035868 -0.020921 0.005944 -0.068023 0.056040 -0.070461 -0.037724 -0.019495 0.096073 0.019236 -0.161544 -0.060523 0.032499 0.022341 0.062093 0.047383 0.032014 0.076848 0.128024 -0.128991 -0.009167 -0.016387 0.058531 -0.036174 -0.055684 -0.006813 -0.026928 -0.000625 -0.036329 -0.049413 -0.131502 0.008877 -0.049110 0.069858 -0.086226 -0.134880 0.020934 0.064354 0.042255 0.065254 -0.001263 0.058505 -0.064215 -0.036269 0.057021 -0.066007 0.087164 -0.015012 -0.071582 -0.022117 0.090057 0.086817 -0.104652 -0.022074 0.089940 -0.011548 0.022605 -0.001308 -0.015670 0.051807 -0.033360 -0.025768 0.030803 0.071028 0.000690 0.033529 -0.000607 0.113081 0.000900 -0.037145 0.010219 0.016114 -0.034808 0.019184 0.017440 -0.058235 0.061790 0.033425 0.000857 0.039393 0.020385 0.040516 -0.078522 0.015193 0.057723 -0.059406 0.011146 -0.084085 -0.007626 -0.023876 -0.036399 0.040936 -0.151435 0.103481 -0.059526 -0.042382 -0.023024 0.028961 0.038348 0.084798 -0.061140 -0.111665 0.003068 0.024755 0.110002 0.037402 0.027395 -0.077933 0.038102 0.095906 -0.159492 0.009302 0.051719 -0.030817 0.085163 0.091861 0.004593 -0.029322 0.026155 0.004280 -0.052908 0.046221 0.060597 -0.039219 -0.023453 -0.048361 0.168806 -0.074447 0.012332 -0.051660 0.150318 0.002676 0.154309 0.059897 0.083248 -0.019038 0.064796 0.171663 -0.044118 0.091903 -0.060055 0.013887 0.016800 0.008497 -0.040850 0.000978 0.055115 0.200680 0.045054 -0.014206 0.002323 -0.006680 -0.016279 0.059086 0.110922 0.052197 -0.118840 0.001727 -0.034764 0.017922 -0.070644 0.042542 0.071952 -0.099305 0.054436 -0.109022 
أن 0.090529 -0.070656 0.170488 -0.089547 0.080160 -0.139583 -0.008528 -0.021208 -0.016686 0.033132 0.153049 0.157696 0.192780 -0.074773 0.012894 0.168261 0.077538 -0.165660 0.127283 0.035696 0.034046 0.082548 0.037146 0.036421 0.084080 -0.059335 -0.093341 0.049814 -0.035674 0.011308 0.003835 0.034139 -0.038801 0.046969 -0.032388 0.076958 -0.038332 0.037468 0.053254 -0.048017 -0.000012 0.085198 0.064924 0.011476 -0.097647 -0.160308 -0.129961 0.042708 0.109373 -0.009139 -0.008302 0.080314 0.125217 -0.125212 -0.023752 -0.051173 -0.074918 -0.082315 -0.051266 -0.095000 0.001624 0.221661 -0.054201 -0.073054 -0.120591 0.003451 0.037790 -0.007302 -0.019310 -0.025705 0.052113 -0.014555 -0.062889 -0.009738 -0.035718 -0.044283 0.012969 0.008304 -0.033176 -0.042722 0.051520 -0.028213 -0.011482 -0.182883 0.069811 -0.057795 0.010123 0.137966 0.105094 -0.085180 0.006991 -0.018418 -0.040368 0.108106 0.027480 -0.091853 -0.011689 0.027161 -0.028838 0.139097 -0.117446 0.007361 -0.111777 0.023926 -0.041096 -0.044866 0.012213 0.046417 0.005517 -0.019445 0.012093 0.040812 0.000800 0.122196 -0.089639 -0.040209 -0.032106 0.020968 -0.010059 -0.075681 0.097035 -0.153322 0.010133 -0.075044 0.005979 0.022232 -0.033105 0.098962 -0.001057 -0.067553 -0.013243 -0.075855 -0.085946 0.025530 -0.080525 -0.003802 0.004368 0.040992 0.094810 -0.000062 0.182800 0.028478 0.119623 0.076433 -0.058710 0.140897 -0.082642 0.042559 0.078060 -0.086227 -0.037313 -0.014762 -0.075611 0.032194 -0.049431 -0.059601 0.029035 0.012157 -0.117762 -0.047283 0.141605 0.105563 0.066662 -0.009254 0.222212 -0.085349 0.132794 0.117385 0.017536 0.100142 -0.007183 0.067684 -0.066271 0.026208 0.121299 -0.023815 0.049043 0.090908 -0.064244 0.049426 -0.106270 0.072166 0.020749 -0.135767 -0.118346 -0.125170 -0.065934 -0.076321 0.068337 0.006899 0.005942 -0.022411 0.100969 -0.048067 -0.015404 0.133387 0.026584 -0.094591 0.131038 -0.150325 
i 0.008808 0.046320 0.186569 -0.168561 -0.064391 -0.081724 -0.028881 0.115901 -0.028043 -0.161793 0.037108 -0.127686 0.191662 0.111917 -0.048264 0.129926 -0.080469 -0.033182 0.158970 0.006635 0.102217 0.136009 0.170316 -0.080608 -0.119117 -0.064736 0.094577 -0.136904 -0.147004 -0.025605 0.061073 0.083503 0.096912 0.087272 0.126252 -0.081673 0.144503 -0.003025 0.219808 -0.122528 -0.040878 -0.102260 0.035172 -0.195196 -0.008284 0.064293 -0.082513 0.182193 -0.104387 -0.099542 0.130928 0.054219 -0.066496 0.003228 0.022241 -0.122906 -0.075827 -0.278382 0.135003 0.048154 -0.150701 -0.158987 -0.053354 0.103144 -0.046860 0.030286 -0.193327 0.077636 -0.016392 0.158899 0.018204 0.006369 -0.075057 0.007246 0.168121 0.074070 0.013287 -0.161590 -0.001560 -0.051373 0.176915 0.219366 0.132129 -0.020216 0.141795 -0.033166 0.030036 -0.026758 -0.081767 -0.023334 -0.140938 0.078109 -0.111244 -0.092107 -0.043158 -0.106043 0.083295 -0.009184 -0.192589 0.247761 -0.023986 0.206283 -0.113206 0.034223 -0.005455 0.017861 -0.010052 0.108606 0.040909 -0.127166 0.058161 0.123719 0.017023 0.135778 -0.010526 0.054990 0.047131 0.192846 0.031685 -0.036110 0.152118 0.035180 0.064360 0.022218 0.051196 0.021527 0.012461 0.082777 0.167564 -0.108970 0.052104 0.165424 -0.067570 0.105884 0.067351 -0.008170 0.162109 -0.046439 0.251263 -0.103590 0.244231 -0.008531 -0.075378 -0.064388 -0.091864 -0.001764 0.180665 0.164992 -0.013561 0.080107 0.217570 -0.024078 0.016056 0.072941 -0.200828 0.228439 -0.041109 0.168314 -0.119378 -0.042905 0.065622 0.019794 0.033657 0.029217 0.228435 -0.072417 0.078637 0.068652 0.064594 -0.036377 0.086089 0.123409 -0.027789 0.093471 -0.184580 -0.006319 0.035039 0.012438 0.079955 0.009161 -0.101072 0.047985 0.192721 0.133233 0.092065 0.100428 -0.023942 -0.075854 0.035688 0.035035 -0.023427 0.098381 -0.057032 -0.019956 0.077110 0.051339 0.124476 -0.046675 0.094585 -0.267000 
ه 0.040023 -0.024845 0.103422 -0.094786 0.087620 -0.047199 -0.036762 -0.006327 0.085517 -0.030504 0.090862 0.093862 0.128355 -0.101889 0.117842 -0.054459 -0.006200 -0.003981 0.061126 0.001659 0.078572 0.136601 0.105903 0.000910 0.044299 -0.109011 -0.089781 0.093060 0.123522 -0.061036 0.068010 -0.022727 -0.092769 0.130150 -0.023301 -0.078982 0.062221 0.180525 -0.050336 -0.124772 -0.033473 0.014747 -0.119659 0.058968 -0.045135 -0.062326 0.062162 -0.022593 0.110708 0.017822 -0.029143 -0.054267 -0.015605 -0.047077 -0.030657 -0.030552 0.062968 -0.071558 -0.054538 -0.032784 -0.035584 -0.015174 0.010411 -0.150391 -0.222601 -0.039903 -0.067306 -0.025717 0.143774 0.016357 -0.051885 0.237165 0.007916 -0.034887 0.040786 0.005690 -0.096257 -0.055634 0.016064 -0.028220 -0.043684 0.045872 -0.030139 0.010568 -0.018450 0.022745 0.098849 0.005005 0.064062 -0.154531 -0.028050 -0.001534 -0.048401 -0.078865 -0.095871 -0.068340 0.167001 0.070478 0.113705 0.189482 -0.044785 0.089211 -0.137027 -0.068292 -0.117306 0.026296 0.043601 -0.027417 -0.045692 -0.058309 0.067133 0.030638 -0.080001 -0.085692 0.019747 0.044723 -0.064687 0.045075 -0.046695 -0.061175 -0.137023 -0.197097 -0.097591 -0.054163 0.058013 0.175348 0.020943 0.128958 -0.035411 -0.028980 0.111129 0.043726 0.077893 -0.012612 0.023649 -0.117989 -0.003152 0.117262 0.029992 0.017846 0.060002 -0.000270 0.042732 -0.029683 -0.060360 0.068764 -0.084164 -0.047397 -0.013274 0.062417 0.020936 -0.029800 -0.111801 -0.040971 -0.251835 0.040604 -0.015842 0.059206 -0.015359 0.084493 0.165336 -0.031517 -0.082869 -0.041784 0.083118 -0.026131 0.066717 0.031354 0.115505 -0.069937 0.124412 0.146120 0.087100 0.076198 0.030433 -0.110086 0.093439 0.026491 0.087334 0.042214 -0.123641 -0.023310 0.030047 0.109378 -0.062406 -0.115188 -0.017610 0.035491 0.187247 0.034727 -0.055538 0.148106 0.031407 0.056599 -0.037366 0.040160 0.004254 -0.175304 0.083151 -0.068789 
in 0.006044 -0.111172 0.109401 0.009176 0.087376 0.023364 -0.021147 0.018432 -0.049684 -0.018673 0.032728 0.055232 0.088616 0.045555 0.088762 0.039720 -0.035433 0.015552 0.069916 0.094869 -0.030337 0.064018 -0.002591 0.074768 0.149815 0.058181 0.079308 0.006131 0.185509 0.094606 -0.108670 0.005756 0.038392 0.032773 0.079911 0.033595 0.076016 -0.053938 0.100548 0.068817 0.014599 0.077882 0.054810 0.031746 -0.089932 0.093965 0.060566 -0.022423 0.002577 0.030586 0.071551 0.065929 0.017549 -0.081282 0.041872 -0.128913 -0.065437 0.099319 -0.036350 -0.067342 -0.080339 -0.026738 -0.072008 -0.037627 0.088213 -0.084080 0.064935 -0.071504 -0.069955 0.023463 0.058501 0.043434 -0.038652 0.104981 -0.090596 0.128135 -0.009991 -0.071715 0.011661 -0.029609 -0.059451 0.126008 0.036055 -0.042745 0.003041 -0.066143 -0.049495 0.073888 0.148129 0.089285 -0.014019 0.019618 0.024122 0.012769 -0.150984 0.036274 -0.056253 0.053272 -0.048663 -0.007803 -0.043125 0.019642 -0.095344 0.059880 0.056936 0.040133 -0.109317 -0.044613 0.089892 -0.084513 -0.019693 0.020897 0.010531 0.025520 0.125297 0.029233 -0.050066 0.126179 -0.021489 -0.006757 -0.084657 -0.050057 -0.036160 -0.018400 0.039670 0.131807 -0.028306 -0.108715 0.005555 0.128971 -0.000095 0.005437 0.032078 -0.012875 -0.022083 -0.088340 -0.127202 0.047149 0.140962 -0.048121 0.017251 0.057076 -0.062400 0.082853 -0.075850 0.053456 0.073114 -0.026371 0.125435 -0.053046 0.000822 0.005424 0.034127 -0.050009 -0.239868 0.077175 0.021764 -0.068430 -0.048512 -0.073949 -0.019351 -0.026064 -0.045430 0.004268 0.134525 0.008907 0.117456 0.094718 0.144222 -0.059134 0.100026 0.039753 0.104260 0.026758 0.040887 0.000433 0.003770 0.047233 0.052461 -0.037143 0.003842 0.214479 0.133268 -0.110899 0.008815 0.071067 -0.020397 0.008884 0.129810 -0.039644 0.126242 -0.005154 -0.114933 -0.062773 -0.101907 0.110233 -0.014972 -0.088673 0.074337 0.042998 
it -0.020470 -0.118491 0.004787 0.028139 0.027081 -0.121941 0.065833 0.048073 -0.003819 -0.209464 0.054984 0.016392 0.099707 -0.090121 -0.018751 0.055146 0.102199 -0.079274 0.015888 -0.003894 -0.004542 0.071522 -0.126480 0.031925 0.163411 -0.054659 0.024207 -0.004733 0.142543 -0.219103 0.049106 -0.014492 -0.075495 0.103063 0.060563 -0.109359 -0.032520 0.037241 0.095317 -0.102205 -0.050830 -0.025876 0.075156 0.104871 -0.138801 -0.024766 -0.041000 0.093398 0.066937 -0.062851 0.067306 -0.104785 -0.046669 -0.116441 -0.060618 -0.112571 0.006293 -0.058112 -0.074397 0.061805 0.101799 -0.039029 -0.028351 -0.069532 -0.040915 0.008916 -0.060218 0.048047 -0.020749 -0.059984 0.106049 0.028000 -0.014290 0.038472 0.118292 0.009502 -0.048443 0.055104 0.030645 -0.043252 -0.061539 -0.003259 -0.048976 -0.089691 0.094556 -0.062289 0.073640 -0.014975 -0.049431 0.093518 0.038187 0.085747 -0.105259 0.023750 0.005884 -0.027461 0.106151 0.138357 0.112388 0.042437 -0.035157 0.047743 -0.086284 0.017353 -0.017971 -0.124265 0.031486 -0.043214 0.031961 -0.110755 0.148337 -0.058628 -0.053732 -0.064967 0.070032 -0.019751 0.055206 -0.109654 0.085785 -0.038269 -0.114884 -0.044473 0.126326 0.045151 -0.113254 0.269256 -0.048241 -0.025160 -0.111460 -0.088625 0.135101 -0.056249 -0.098039 0.028894 -0.048637 -0.043417 0.074088 -0.006794 0.024900 -0.022040 -0.081919 -0.124427 0.026571 0.061747 -0.022707 0.111289 -0.028804 -0.088547 -0.031490 0.017564 0.056105 0.041304 0.027792 -0.045608 -0.027176 0.072318 -0.078683 0.024052 -0.072754 0.035820 0.078368 -0.146777 0.008726 0.040174 0.013235 -0.145804 0.130882 0.064920 0.134442 -0.010049 0.113799 0.095908 -0.142292 0.019017 0.026209 -0.000395 0.022363 0.022630 0.083650 0.030933 0.022213 0.127098 0.014265 0.028663 -0.046124 -0.028264 -0.037506 0.009682 0.072792 0.040144 -0.216636 -0.054517 0.096207 -0.039914 -0.077823 0.052548 0.120621 -0.208234 0.128481 -0.111704 
you 0.135979 -0.154816 0.044057 -0.126176 -0.031024 0.153989 -0.115427 0.019776 -0.045604 -0.161779 0.059603 0.100438 0.163207 0.111080 -0.021374 -0.026962 -0.171934 0.099303 0.125341 0.121247 -0.134729 0.042340 -0.009857 -0.131977 -0.233198 0.026590 0.134622 -0.055724 -0.006355 -0.127987 -0.044879 -0.212922 -0.046534 -0.122268 0.029991 -0.104305 0.173428 -0.069784 -0.107575 0.007585 0.032949 -0.047342 0.087163 0.067219 0.033128 0.019365 -0.203770 0.164174 -0.004702 -0.246819 -0.068495 0.221767 -0.233618 -0.059533 0.046609 -0.254211 -0.002200 -0.035507 -0.082224 -0.228015 0.076179 0.077174 -0.086072 -0.014192 -0.289537 0.012350 -0.303657 -0.025068 -0.014457 -0.097997 -0.029702 0.281992 -0.316555 0.120982 0.002037 -0.140835 -0.154400 -0.105514 0.022831 0.020571 -0.116836 0.065578 -0.002179 -0.009517 0.060129 0.038095 0.266413 -0.075816 -0.216262 0.099824 0.025480 0.137206 -0.109434 0.067002 -0.056353 -0.247240 0.151125 0.115719 -0.089706 0.028161 0.042202 0.040903 0.129655 -0.083683 0.082925 -0.148672 0.044562 0.140258 -0.018511 -0.218176 0.179968 0.108330 0.108882 0.068069 -0.033878 -0.145753 0.014354 -0.104458 0.088033 -0.137178 0.128496 -0.083855 0.080836 -0.083605 -0.046741 0.173622 0.174584 -0.082085 -0.127900 -0.073756 0.037970 0.023305 -0.009211 0.042456 -0.065048 0.049804 0.027265 0.147495 0.061289 0.052346 0.266089 -0.048563 0.080945 0.068471 -0.218585 -0.008998 -0.013965 0.078546 0.158841 -0.114602 0.169631 -0.101861 -0.013243 0.167598 -0.067920 0.022872 -0.005681 -0.124738 -0.112719 -0.100674 -0.002576 0.070008 0.046163 0.125000 0.067546 -0.110831 -0.057950 -0.044088 0.111674 0.014271 0.135000 0.103067 0.097959 0.053817 -0.005356 -0.117956 0.000581 0.060587 0.082910 0.057909 -0.151490 0.032896 0.028826 -0.199279 -0.065480 -0.128304 -0.100696 0.036586 -0.014202 0.079878 -0.009451 0.073376 0.252604 -0.167554 -0.016262 -0.078824 -0.072646 -0.120204 0.118219 0.093752 
ها 0.003660 -0.048485 -0.126338 -0.034571 0.105093 -0.005541 0.005305 0.020773 -0.012132 -0.043500 0.062078 -0.020419 0.104347 -0.043943 -0.002156 0.091435 -0.044843 -0.110952 0.102653 0.152519 -0.016072 0.074817 0.054017 0.019844 0.038007 -0.107485 0.039039 0.059848 0.037639 -0.140950 -0.011338 -0.072121 -0.027248 0.192599 0.003755 0.025138 0.111727 0.042204 0.017631 -0.012722 -0.054079 -0.029194 -0.013700 0.145651 -0.199687 0.050145 -0.018562 0.131504 -0.028422 0.037505 -0.014992 -0.061826 0.089225 -0.008506 -0.030112 -0.116238 0.072388 0.072103 -0.032527 0.029690 -0.072500 0.076610 0.016628 -0.101418 0.088016 -0.029806 -0.006973 0.016062 -0.077617 -0.048514 0.147397 0.156300 -0.046538 -0.114097 -0.012964 -0.014723 0.067509 -0.123217 0.146310 0.013077 0.046219 0.039718 0.030877 -0.104485 -0.029630 0.037734 -0.006852 -0.044116 0.051644 -0.140203 0.039802 0.055769 -0.013769 -0.078351 -0.058319 -0.040156 0.064720 0.148351 0.032048 0.157547 -0.200527 0.063946 -0.034637 0.106721 0.044301 -0.044122 -0.000604 -0.030005 0.010667 -0.064166 0.071512 -0.014766 -0.188067 -0.117848 -0.063325 0.063600 -0.016003 -0.016776 0.104966 -0.115511 -0.115407 -0.055025 0.009029 0.024618 -0.139565 0.091222 0.069650 0.117948 -0.037439 0.036303 0.033569 0.037414 -0.086339 0.147550 0.019598 -0.027373 -0.040929 0.181309 0.137915 -0.026203 0.060956 -0.034466 -0.062450 -0.011606 -0.112462 -0.074031 0.019245 0.114024 0.076373 -0.007755 -0.098226 -0.027166 0.036343 0.012646 -0.156226 -0.026382 -0.023781 -0.110763 -0.053350 -0.087757 -0.046829 -0.013757 0.057550 0.001157 0.022255 0.028497 0.192240 -0.025294 0.110131 -0.030985 0.028596 0.146817 0.090945 0.019616 -0.051312 -0.061432 0.160226 0.205741 -0.166559 -0.029977 -0.041854 0.063791 -0.014410 -0.090084 0.005216 0.024230 -0.017655 0.177710 0.052278 0.172006 -0.010095 -0.024007 0.008420 0.080198 -0.223114 -0.003270 -0.045582 -0.018702 0.064819 -0.058920 
we 0.117569 -0.097335 0.038676 -0.016439 -0.100852 -0.001383 -0.165340 0.126848 0.022881 -0.125959 0.140011 -0.003520 0.166213 -0.110325 -0.040260 0.071876 0.123100 0.089917 0.010427 -0.035001 0.044314 -0.034509 -0.072798 -0.030639 0.164101 0.205365 -0.092693 -0.036568 0.050693 -0.204589 0.238760 -0.054561 -0.059718 0.060263 -0.010315 0.015554 0.191232 -0.213979 0.043100 -0.177704 -0.094213 -0.016769 0.072725 0.108218 -0.147512 0.034937 0.054425 -0.051608 0.028818 0.190797 0.035674 0.102456 0.056648 0.042637 -0.126634 0.073531 -0.073575 -0.020750 -0.017991 -0.211526 -0.045157 0.053815 0.189045 -0.145736 -0.059124 -0.239955 -0.166297 0.029332 -0.133555 -0.001254 -0.076525 0.080833 0.008967 -0.030363 -0.053791 -0.135807 0.028820 -0.114719 -0.027217 0.077804 0.073970 0.152908 0.074389 -0.194223 -0.032540 0.176163 0.001009 0.035698 0.017270 0.086023 -0.152713 -0.017600 -0.023882 0.121965 0.149985 -0.076072 0.066938 -0.005907 0.088911 -0.054432 -0.141598 0.096904 -0.057809 -0.052125 0.116713 -0.204086 -0.056874 0.057963 0.117412 -0.157721 0.129472 -0.248583 -0.143218 -0.017003 -0.175637 0.034532 0.080174 0.038834 -0.001947 0.069347 0.066468 -0.120270 0.098046 0.164463 0.086844 0.014326 -0.095667 0.029567 0.095162 0.073290 -0.028008 -0.141451 0.110862 0.053475 -0.054180 0.026617 -0.075491 0.053814 0.045329 -0.113096 0.163866 -0.066837 -0.045758 0.209824 -0.014096 0.077295 -0.032909 0.049744 0.097443 -0.057257 0.104983 -0.064162 -0.068159 -0.146716 -0.225296 -0.111305 0.070533 0.069048 0.069855 -0.083754 0.063849 -0.139907 -0.273900 -0.023733 0.051295 -0.156201 0.214492 0.093685 0.145269 -0.082785 0.093889 0.049193 -0.088305 0.095503 0.087477 0.136265 -0.071927 0.147475 -0.199025 -0.128018 -0.021201 0.088887 0.098810 -0.040694 0.185832 -0.061098 -0.090883 0.016947 0.115943 0.155893 0.038121 -0.024868 0.099108 -0.217686 -0.073574 0.066649 0.015646 -0.134060 0.173019 0.100666 
is 0.028902 -0.228999 0.048470 0.029450 0.139979 -0.180223 -0.102813 -0.082752 -0.018841 -0.146493 0.058325 0.066855 -0.097826 0.082635 -0.026871 -0.046211 -0.021888 0.088172 0.005296 0.196970 0.031808 -0.075571 0.106003 0.132702 0.168194 -0.025237 0.052411 -0.090388 0.018291 0.074215 0.100258 0.043431 -0.033291 0.063857 0.125546 -0.114572 0.039375 -0.163298 0.036834 0.055794 0.041490 -0.006968 0.146307 0.037835 -0.115573 -0.078139 0.182215 -0.047067 0.103449 -0.091995 -0.085984 0.059214 -0.004122 0.042442 0.083369 -0.040718 0.103847 0.004286 -0.145886 -0.091293 -0.087471 0.040638 -0.064026 -0.145032 -0.050067 -0.062416 -0.040882 -0.053847 0.014173 0.018607 0.042645 0.068132 0.133897 0.069544 -0.156712 0.062564 -0.140354 0.021609 0.014304 0.014440 0.010766 -0.056574 -0.086957 0.057007 -0.132451 -0.023348 -0.047711 -0.122556 0.123463 0.124406 0.170949 0.006847 -0.009729 0.053930 -0.076430 0.010005 0.023322 -0.010163 0.015017 -0.037250 0.084283 0.157901 0.026242 0.055370 -0.075934 -0.188651 0.058608 -0.013660 0.147007 -0.203726 -0.022125 0.034457 -0.035398 0.044544 -0.078812 0.035453 -0.068003 0.052388 -0.092210 0.015531 -0.227254 -0.042050 -0.109903 -0.175084 -0.143764 0.076333 -0.086179 -0.131429 -0.194934 -0.006820 -0.000889 -0.032701 -0.093093 -0.006870 -0.109677 -0.146760 0.007010 -0.036579 0.178437 -0.046684 0.060917 -0.225158 0.206596 0.098362 -0.074823 0.051686 -0.001273 0.112534 0.096419 -0.110351 0.084768 0.075766 -0.030454 -0.127882 -0.126113 0.173927 -0.134902 -0.014194 -0.159193 0.039846 0.051053 0.099409 -0.028237 -0.035495 0.062441 0.029906 0.132469 0.108074 0.133748 -0.010825 0.109722 0.032000 -0.048813 -0.068351 0.000675 -0.078239 0.148827 0.077660 -0.105416 -0.004924 -0.036579 0.058549 0.184927 0.026103 0.087939 -0.027418 0.004844 -0.047179 0.037780 -0.017935 0.159681 0.043844 0.103294 0.019397 -0.017542 0.113758 -0.016708 -0.152952 0.177512 -0.143669 
نا 0.129202 -0.145431 0.021798 -0.130045 -0.012328 -0.113849 -0.040949 -0.019828 -0.035920 -0.019453 0.028750 -0.033007 0.188470 -0.065963 -0.092336 0.053017 0.218275 0.053113 0.110941 0.003618 0.158650 0.013558 -0.069869 0.027552 0.207479 0.051700 0.010555 0.162872 0.015715 -0.186837 0.080270 0.096405 -0.068012 0.069400 0.083098 0.055354 0.107114 -0.115143 0.003380 -0.046097 -0.121737 0.108520 0.008556 0.172526 -0.089819 0.024514 0.000576 -0.137629 -0.016353 0.133351 0.011922 0.087461 0.155893 -0.041522 -0.070660 -0.019763 -0.001415 0.049052 0.054584 -0.142811 0.048359 0.047203 0.217231 -0.057096 -0.114530 -0.221463 -0.205814 -0.049619 0.033910 0.045782 -0.067067 0.031149 -0.002598 -0.111958 -0.083616 0.012007 0.226693 0.041569 -0.060162 -0.047827 0.108112 0.070389 0.114676 -0.172828 -0.085155 0.193593 0.085392 -0.036188 0.125352 0.014681 -0.099312 -0.046043 -0.124086 0.122705 0.042878 -0.047208 0.068271 0.012482 0.161053 0.049761 0.037967 0.088236 -0.117100 0.014102 -0.054397 0.017709 0.009325 0.007190 0.046989 -0.176736 0.094901 -0.216778 -0.156215 -0.123464 -0.130638 0.089202 -0.037776 0.079446 -0.049316 0.025246 0.007491 -0.029146 -0.018050 0.161399 0.140447 -0.037102 -0.149360 -0.012514 0.144919 0.015440 0.133201 -0.169608 0.038458 -0.025830 -0.017953 -0.254717 -0.029459 -0.035566 0.088306 -0.045260 -0.117753 -0.010224 -0.096501 0.257127 -0.016438 0.213039 0.056011 -0.062309 0.106436 -0.019504 0.166064 0.143216 -0.088570 -0.036674 0.001777 -0.032315 0.001962 0.055679 0.024530 -0.190570 0.079118 -0.100314 -0.048828 -0.130436 0.064668 0.076057 0.216470 0.080338 0.060438 -0.154870 0.137887 0.027295 -0.001746 0.159970 0.082159 0.020543 -0.135866 0.191389 -0.113799 -0.139275 0.124176 -0.001505 0.072698 0.008280 0.150104 -0.184231 -0.146902 0.128058 0.053924 0.133780 0.074367 0.092532 0.036670 -0.093989 -0.088152 0.135842 0.203260 -0.151666 0.150271 0.033391 
's -0.028462 -0.201081 0.022034 -0.078152 0.161030 -0.113744 -0.063061 0.092615 -0.012543 -0.000274 0.043892 0.044314 -0.040355 0.107448 -0.022280 -0.134732 0.074490 -0.019398 0.034584 0.199006 -0.098852 -0.049295 0.116056 0.052117 0.037217 -0.039186 0.025672 0.051238 -0.057506 -0.111969 0.053808 -0.094073 -0.022404 0.045769 0.179665 -0.163576 -0.003780 0.040803 0.059421 -0.017087 0.016968 -0.124219 0.052474 0.151324 -0.116435 -0.135638 0.133014 0.062294 0.081366 -0.107141 -0.089808 0.105001 0.120605 -0.045680 0.134706 -0.147805 0.105232 -0.040820 -0.011733 0.072639 -0.050557 0.014814 -0.072883 -0.016671 -0.166929 -0.135341 0.033648 -0.036296 0.113707 0.165961 0.071160 0.104042 -0.000146 0.033175 -0.082849 0.085770 -0.067433 -0.017024 -0.052794 0.025354 -0.006386 -0.169812 -0.093763 -0.083336 -0.029990 0.026178 -0.019957 0.072274 0.118309 0.040037 0.050605 0.098173 0.104722 0.015807 -0.042448 0.097441 0.296229 0.023480 0.207434 0.081229 -0.087551 0.057684 0.010417 0.026953 0.169732 -0.144389 0.014279 -0.028976 -0.001847 -0.095462 0.084194 -0.053650 0.041618 -0.043411 -0.091261 0.004725 -0.068338 -0.013508 -0.050605 -0.005340 -0.075377 -0.022694 -0.008861 0.026199 -0.110225 0.079133 -0.010428 -0.027912 -0.088095 0.005551 0.139894 0.036938 -0.190524 0.100996 -0.060772 -0.097233 0.107050 0.043934 0.037502 0.031615 0.060613 -0.196438 0.116423 0.090325 -0.028185 0.004505 0.026439 0.101310 0.148985 -0.040299 0.051678 0.073449 -0.047354 -0.039319 -0.192261 0.104819 -0.177032 -0.056306 -0.121633 0.139438 0.122329 -0.057659 0.030394 0.131279 -0.026962 -0.054884 0.153741 0.151394 0.300398 -0.055505 0.100498 0.061990 0.021023 -0.064568 0.167664 0.028282 0.276740 0.005833 0.000898 -0.110510 -0.104010 -0.066666 0.039759 0.124589 -0.034168 -0.092335 -0.056433 0.023076 0.104908 0.073861 0.075495 -0.027284 0.052204 -0.007729 0.014993 0.093365 0.028926 -0.251348 0.183623 -0.094856 
this -0.105977 -0.096791 0.232447 -0.062142 0.030919 -0.072127 -0.055905 0.013293 -0.014247 -0.149322 0.027913 0.067283 0.124699 0.018598 0.004088 0.053561 -0.121414 0.122628 0.124637 0.089751 0.057175 0.103784 -0.047210 0.039084 0.136197 0.045880 0.039003 -0.098142 -0.054218 0.042760 -0.055279 0.014555 0.027800 -0.028993 -0.010570 -0.082549 0.047449 -0.046119 0.148470 -0.150472 0.008149 -0.010790 0.191280 -0.006942 -0.219563 0.076020 0.081887 -0.004057 -0.018779 -0.063209 0.006598 0.097170 0.115718 -0.065307 -0.090498 0.050707 0.109229 0.028268 -0.143495 0.021556 -0.111248 -0.107484 -0.248001 -0.083354 -0.145727 0.046459 0.027433 0.010994 -0.011515 0.137994 0.137119 0.210814 0.018112 0.017653 -0.121227 0.140495 0.002952 0.041820 0.124396 0.068687 0.017566 -0.037710 -0.108598 -0.126656 -0.090824 -0.001941 -0.136901 -0.093726 -0.013460 0.081855 0.061093 -0.082669 -0.232525 0.068521 -0.097671 0.009769 -0.017781 0.027448 -0.129561 -0.013130 -0.052948 0.108755 0.047563 -0.026258 0.104066 -0.092781 0.060266 -0.034467 -0.039118 -0.010920 0.097679 0.043565 0.009353 0.153144 0.047060 0.021737 0.053738 -0.029672 0.026890 0.033708 -0.122665 0.066981 0.069142 0.060974 -0.102403 0.054046 -0.072814 -0.032207 -0.056374 -0.035835 -0.075866 -0.073899 0.108036 0.038652 0.122874 -0.134178 0.125045 0.054187 0.062316 -0.114243 -0.006110 -0.125713 -0.085891 0.176031 -0.106423 0.111088 -0.007374 0.046323 0.131977 0.093365 0.146987 -0.081086 0.005135 -0.031152 -0.086594 0.101399 -0.004034 -0.055790 0.040484 0.050452 0.263453 0.021999 0.071443 -0.058967 0.180430 -0.048487 0.029184 -0.035197 0.047480 -0.047112 0.100702 0.089159 0.088494 0.037848 -0.062553 -0.111071 -0.049289 -0.023893 -0.047706 -0.024631 0.148577 0.130482 0.051192 0.001122 0.016495 -0.024426 -0.031179 -0.002601 0.057773 0.076561 -0.039062 0.021727 0.090419 0.000183 0.009371 0.180649 0.085455 -0.198338 0.101364 -0.158647 
" 0.004429 -0.130177 -0.090632 -0.103225 0.078855 -0.162089 -0.049671 -0.041846 -0.123947 0.041373 -0.011548 -0.132005 0.157277 -0.044822 -0.061651 -0.028791 0.064709 0.062385 -0.112470 0.028665 -0.083356 -0.054194 0.093107 -0.094687 0.015120 -0.073050 0.178907 -0.043741 0.101692 0.050400 -0.230237 -0.008815 -0.138796 0.017995 0.033160 -0.092358 0.180512 -0.029077 -0.006778 -0.082098 -0.020347 0.071827 -0.076680 -0.132180 -0.062189 -0.183887 0.103528 0.271000 -0.028488 -0.023325 0.013556 0.141140 0.027602 -0.083755 -0.069695 -0.073660 0.028758 -0.163923 -0.132358 -0.024449 -0.093599 0.023491 0.073923 -0.045482 0.118867 0.068437 0.203813 0.121501 0.243184 0.019060 0.120620 0.218639 0.082675 -0.035162 0.172841 -0.033756 -0.151334 -0.173263 -0.017245 0.010758 -0.171383 -0.146346 -0.047444 -0.082497 -0.219512 0.107892 0.178758 -0.077198 -0.244564 0.111053 -0.126437 -0.158792 -0.012974 0.015783 -0.289241 -0.132245 -0.070189 0.070759 -0.080869 0.070990 -0.045716 -0.031746 -0.167556 0.051023 -0.007159 -0.052903 -0.075207 0.042020 0.018373 -0.265362 0.009451 0.073078 -0.061380 0.064482 -0.182329 0.203854 -0.076900 0.061065 -0.224978 0.118528 -0.158266 -0.098242 -0.043616 0.066109 -0.116721 -0.050575 0.115923 -0.110645 0.171962 0.027396 -0.037373 0.019522 -0.009082 0.070518 -0.056654 -0.227739 0.209554 0.065697 0.252545 -0.141703 0.076534 -0.146411 -0.000145 -0.033252 -0.004572 0.048751 0.072781 0.098727 -0.035520 0.173921 0.164695 -0.159905 0.066403 0.037264 0.056492 0.026260 0.068120 0.169385 -0.097092 -0.132016 -0.032884 0.128084 -0.048386 0.046052 0.076176 -0.016191 0.166286 0.064700 0.124867 -0.013068 0.241248 0.318382 -0.053555 -0.046302 -0.049461 -0.157864 -0.149322 -0.158486 -0.144342 -0.045162 -0.159532 0.237100 -0.119491 -0.097408 0.020365 0.158970 0.055679 -0.072230 0.024238 0.038494 -0.098480 0.072812 0.141694 -0.106767 0.205555 0.132368 -0.120509 -0.063093 0.045471 -0.173152 
على -0.012480 -0.056556 0.177182 -0.168689 0.062635 -0.053363 -0.049446 -0.097014 0.105637 -0.020172 0.176078 0.033112 -0.010674 0.009121 0.029531 -0.053365 -0.069353 -0.040260 0.022259 -0.011752 -0.107711 0.048011 0.016372 -0.113517 0.071589 -0.001836 0.025325 0.117185 0.070263 -0.096737 0.106238 0.010942 -0.003263 0.022890 0.218467 -0.041012 0.000310 -0.162951 0.035659 -0.004526 0.095174 0.102216 0.045793 -0.057646 -0.270179 0.013546 -0.023009 -0.053152 -0.023665 0.041666 0.060253 0.054567 0.058488 -0.085891 0.027403 -0.059277 -0.009574 0.081901 -0.032287 0.134034 -0.139298 0.105636 -0.053813 -0.148554 0.139968 -0.043436 0.042818 0.028758 -0.013787 -0.042679 0.003233 0.030437 -0.018142 0.177292 -0.033928 0.037743 -0.004536 -0.178364 -0.021576 -0.034577 0.061403 0.154466 -0.035017 0.029194 -0.090277 0.062345 0.038146 0.013713 0.060188 -0.024332 -0.071116 0.130254 -0.029491 -0.054973 -0.065933 -0.096144 -0.033565 0.040384 0.034956 0.148555 -0.000267 0.089578 -0.021407 0.038566 0.014644 0.087975 0.173619 -0.096866 0.219398 0.015891 -0.079408 0.029501 0.148787 0.062176 -0.057724 -0.076381 0.000839 -0.081854 0.077820 -0.058319 -0.091138 -0.028936 -0.146543 -0.049890 0.063433 0.044126 -0.066478 0.014981 -0.001883 -0.092025 -0.079052 -0.079575 -0.069493 0.020324 0.030080 -0.090030 -0.003213 -0.035658 -0.110545 -0.018067 0.065715 0.029485 0.157399 0.218174 -0.037701 0.088065 0.047043 0.013587 0.126049 -0.062618 0.004002 -0.091357 0.016574 0.016028 -0.059239 -0.041890 -0.032092 0.105386 -0.136344 -0.007378 0.041630 0.027884 0.108275 -0.019270 0.071137 0.009154 0.014121 0.035780 0.074480 -0.041833 0.074726 0.072938 0.015928 -0.099233 -0.141751 0.017150 -0.120052 0.200289 0.053726 0.047732 -0.055442 0.031760 0.078434 -0.018174 0.010408 -0.069269 -0.031400 0.116324 -0.037352 0.132220 -0.008432 -0.096805 0.076418 -0.083166 -0.073343 -0.051989 0.096735 0.018006 0.404035 0.066141 
هذا -0.013168 -0.222819 0.275346 -0.065425 0.036921 -0.133488 0.059862 -0.107342 0.112959 -0.216560 0.025376 -0.045017 0.023378 -0.063967 0.008852 0.009815 0.171945 0.109386 0.022543 0.143235 0.113395 0.004500 0.039309 0.084889 0.003688 -0.004345 0.068699 -0.052450 -0.043921 0.139308 0.028600 0.086943 -0.032938 0.038783 0.040534 -0.056211 0.056689 -0.033354 0.065590 -0.065376 -0.010757 -0.040590 0.020769 -0.083471 -0.061121 -0.057162 0.032037 0.038232 -0.076531 0.116869 -0.099858 -0.024683 -0.091197 -0.128617 0.032014 -0.074880 0.080010 -0.028902 0.011956 0.014186 0.038877 0.055621 -0.013672 -0.185593 -0.067836 -0.054290 0.001366 -0.055463 0.090857 0.028443 0.165845 0.191656 0.062235 -0.017011 -0.038564 -0.078571 -0.091321 -0.034393 -0.095290 -0.081126 0.027674 0.096325 0.116044 0.141651 0.054843 0.079674 0.067786 -0.070876 0.031289 -0.078407 0.107891 -0.059167 -0.035741 0.101913 -0.012526 -0.174549 -0.000622 0.048918 -0.035254 0.044625 0.080099 -0.024824 -0.120395 -0.099140 -0.088087 -0.130861 0.165547 -0.005477 0.010718 -0.056204 -0.093974 0.061246 -0.065377 -0.043382 -0.115588 -0.132251 0.074240 0.016401 0.091775 0.003379 -0.219259 -0.045661 -0.012124 -0.071609 -0.033844 0.028629 -0.028822 0.048939 0.037725 0.046564 0.100596 -0.024188 0.007830 -0.194313 -0.058582 -0.000837 0.109479 0.075302 0.085693 0.044011 0.127925 -0.041247 0.028531 0.035872 -0.035637 -0.017561 -0.060481 -0.107924 0.082565 0.035163 0.136410 0.018589 0.033252 -0.089862 -0.077123 0.047193 0.094330 0.024121 -0.161599 0.092236 0.176123 0.059658 -0.098954 -0.149027 0.116295 -0.075159 0.103527 0.137575 0.143983 -0.044021 0.033989 0.103016 0.016718 -0.077855 0.173476 -0.055520 -0.055151 0.034952 -0.003380 0.030805 0.032821 0.182485 0.146463 0.054300 -0.028011 -0.062753 0.132444 -0.094715 0.049079 -0.082650 0.019734 -0.060252 0.054826 0.068087 0.119021 0.072238 0.139718 -0.112795 0.172664 -0.122684 
ما 0.175071 -0.090662 0.157768 -0.011463 -0.031487 -0.122737 -0.061832 -0.045128 0.096351 -0.119050 0.039856 0.175090 0.134719 0.038377 0.070650 0.160040 -0.007759 0.064915 0.045266 -0.016983 -0.152044 0.005674 0.154063 0.032427 0.226964 -0.069065 0.082054 -0.031507 0.040055 -0.147972 0.046595 0.034476 -0.088334 -0.051718 -0.009640 0.073282 -0.016317 0.062219 -0.044875 0.019547 0.010414 0.036521 0.079871 0.011270 -0.088074 -0.043109 -0.039265 -0.043624 0.003442 -0.123251 -0.231748 0.079975 0.014930 -0.062266 0.134588 -0.004468 -0.003792 -0.029382 -0.229752 -0.034234 -0.030043 -0.005354 -0.047831 -0.114781 -0.113529 -0.061474 0.003552 -0.094527 0.029129 0.076795 -0.043352 0.056789 -0.090066 0.009398 0.084963 0.040674 -0.166286 -0.158480 -0.013137 -0.015500 -0.012026 -0.014014 0.014840 0.042442 0.004415 0.097736 0.089359 -0.241158 0.059968 0.003847 -0.018985 0.000755 -0.093362 0.087922 0.046083 -0.102954 0.053801 0.251835 0.073952 0.033176 -0.028537 -0.062884 -0.130539 0.022700 -0.008949 -0.081239 0.115119 0.009926 -0.012137 -0.031564 0.111714 -0.070421 -0.057241 -0.021755 0.091196 -0.167032 -0.080315 0.073518 0.114750 -0.053038 -0.076623 -0.034577 -0.085288 -0.224702 0.047471 0.083553 -0.069947 0.032716 0.079082 -0.059833 0.016266 0.051520 0.058461 -0.161739 0.017852 -0.055663 -0.110789 0.083705 0.127886 -0.097642 0.003042 -0.038864 0.062656 -0.020351 -0.147627 0.073813 -0.134044 0.069205 -0.005290 -0.019508 0.087213 0.040903 -0.088705 0.003486 -0.076071 0.024652 -0.052119 -0.041199 -0.073747 -0.084405 0.308881 -0.059740 -0.087494 0.034566 0.261329 -0.088862 0.108717 0.002315 0.129447 -0.092306 0.071542 0.114922 -0.011431 -0.080296 -0.042709 -0.074622 0.102042 -0.003326 -0.037071 0.094699 -0.015102 0.194027 -0.038998 0.103359 0.018802 -0.027101 0.131777 -0.063472 0.002346 0.118616 -0.148679 0.113546 -0.001953 -0.168573 0.003335 0.021170 0.090952 -0.069491 0.089069 -0.310167 
ك 0.098573 -0.281911 -0.003025 0.030234 0.144159 0.054525 0.022402 0.016779 0.082371 -0.166723 -0.002695 0.210868 0.139466 0.140272 0.008658 -0.007848 -0.088248 -0.122431 0.015947 -0.101716 -0.002540 0.154135 0.078134 -0.086789 -0.069483 0.012707 0.120123 0.161068 0.092809 -0.023761 -0.056690 0.104965 -0.245477 -0.097256 0.046590 -0.056595 0.072280 -0.000174 -0.099877 0.020288 0.112399 0.001077 -0.006589 -0.051985 -0.130524 0.055511 -0.153206 -0.001320 -0.060035 -0.091651 -0.096816 0.109444 -0.037422 -0.148509 0.027385 -0.037379 0.032167 -0.069242 0.050026 -0.169876 0.104929 0.093341 -0.079820 -0.024675 -0.007740 -0.070386 -0.069687 0.071656 -0.016134 -0.044666 -0.045004 0.176128 -0.037236 -0.151280 0.088581 -0.156428 -0.172972 -0.064937 -0.084965 0.038612 0.001864 -0.000959 0.037352 -0.066210 0.028522 -0.079119 0.118544 -0.140853 -0.036327 0.115068 -0.075798 0.058049 -0.106523 -0.083672 -0.061589 -0.177442 -0.072631 0.144669 -0.017114 0.079513 -0.228749 0.011432 -0.036199 -0.096837 -0.090433 -0.092431 0.025653 0.023612 0.248751 -0.140443 0.091868 0.062256 -0.030921 0.137491 -0.031691 -0.022732 0.050629 0.025611 0.086628 -0.056530 -0.034297 -0.251422 -0.033963 -0.085891 -0.092470 0.114782 -0.011522 -0.036301 -0.056201 -0.087834 0.120217 0.004253 -0.216846 -0.101307 0.073757 -0.144263 -0.064603 0.102455 -0.009279 -0.128676 0.009575 0.000054 -0.067727 -0.056265 -0.140412 0.108345 0.098217 0.107401 0.113991 -0.167032 0.160064 -0.006282 0.067297 0.044487 -0.097011 0.021020 -0.071154 -0.008162 -0.182728 -0.005584 0.132794 -0.056535 0.215890 0.057269 0.016396 -0.132776 0.123173 0.043069 0.088810 0.198299 0.136383 0.124027 0.091288 -0.063685 -0.076928 -0.006659 0.015429 -0.123761 0.070539 -0.067825 -0.084123 -0.041369 0.043294 -0.073865 -0.006402 0.035290 -0.028182 0.130011 0.072924 0.027521 -0.167591 0.157251 0.029070 0.021553 -0.086784 0.072904 0.040638 -0.156007 0.062329 -0.055573 
so -0.074874 -0.055599 0.022187 -0.134175 0.024826 -0.066418 0.101275 -0.109249 0.011208 -0.072891 0.029878 0.066028 0.007336 -0.031686 0.071926 -0.039529 0.050196 0.221335 0.013022 -0.048998 0.034453 0.026903 -0.048442 0.044131 0.182382 -0.026523 0.034340 -0.159892 -0.032392 -0.033382 0.054397 0.102048 -0.077018 -0.016571 0.042247 -0.047523 0.032560 -0.193385 -0.021129 0.042540 0.096481 0.001273 0.008526 0.145181 -0.278282 -0.056688 0.057147 0.055457 0.010229 -0.012892 -0.080952 0.309377 0.129799 -0.165133 0.110573 -0.083687 0.055314 -0.005533 0.103360 0.089458 0.034816 -0.026372 0.069218 0.021664 -0.120749 -0.042660 -0.153569 0.146963 -0.155163 0.077062 0.010312 0.078821 -0.106257 0.090445 0.062724 0.110444 -0.038576 -0.091825 0.116233 -0.043346 -0.013571 -0.007214 0.045015 0.016010 -0.053337 -0.044069 -0.032574 0.126975 -0.071485 -0.048132 -0.116693 0.103029 -0.109224 -0.075937 0.039691 -0.113773 -0.061476 0.045610 0.117161 0.066707 -0.141711 0.122568 -0.051815 0.055717 0.044200 -0.028760 0.123655 0.036114 0.035469 -0.022510 0.033417 -0.036014 -0.004185 -0.039735 0.002616 -0.135360 -0.010772 -0.153611 0.032239 0.082122 0.055714 -0.084095 -0.038123 -0.006456 0.041949 0.004332 -0.001003 -0.105065 -0.018427 -0.122278 0.117360 0.092028 0.151080 0.056142 -0.004339 -0.006896 0.009777 0.155069 0.118126 0.049006 0.218125 -0.025530 0.081382 0.199983 -0.092174 0.090689 -0.070587 -0.005274 0.106436 0.066508 -0.025728 -0.051187 0.052709 0.037871 -0.058075 0.032343 -0.137237 0.072130 -0.196049 -0.173853 0.110997 -0.085833 -0.041980 0.156561 0.184957 -0.092371 0.004609 0.248857 0.049182 -0.123915 -0.059936 0.147576 -0.015148 -0.007353 0.095889 -0.003568 -0.135726 -0.189442 -0.014704 -0.041039 -0.084111 -0.005202 0.013223 0.068952 -0.068667 0.086972 0.039859 0.071983 0.107366 0.063575 0.042940 0.086166 -0.011906 -0.008338 0.007088 0.302824 0.137079 -0.194124 0.086441 -0.015736 
they 0.055344 -0.012227 0.022777 -0.017492 0.050163 0.081602 -0.121399 -0.002960 0.119468 0.003831 0.145835 -0.098218 0.237152 0.045281 -0.165100 -0.049434 -0.049943 -0.081483 -0.220979 0.030754 -0.084122 0.081622 0.091321 0.059470 -0.016834 -0.039683 -0.015718 -0.003918 0.302784 -0.247363 0.009804 0.033803 0.100017 0.069280 0.069470 -0.098553 0.086672 -0.160859 -0.030707 -0.136785 -0.126937 -0.052845 -0.025748 -0.092767 -0.163999 0.134988 -0.089226 0.072487 0.114958 -0.027913 0.177699 -0.037090 0.065843 -0.070952 0.122794 -0.138006 0.122276 -0.232960 -0.026930 0.059410 0.003659 0.028009 -0.035689 -0.036832 0.050858 -0.223170 -0.077754 0.063005 -0.222004 -0.055851 -0.032504 0.029768 -0.031068 0.101641 0.090327 -0.009672 0.004914 -0.144921 0.027867 0.003195 -0.002794 0.236640 -0.058179 -0.229038 -0.196111 0.133604 0.257959 0.000709 0.044779 0.155654 -0.000478 -0.003165 0.018287 -0.056577 0.081104 -0.067880 0.124408 0.190788 -0.094670 0.018674 -0.237662 -0.051317 -0.012417 0.130073 -0.060806 -0.040135 0.022945 0.090747 0.038554 -0.027692 0.202871 0.063921 -0.141838 -0.017664 0.184318 -0.107657 0.002778 0.034271 -0.071441 -0.011653 -0.000207 -0.136550 0.019699 0.048554 0.071510 0.060076 0.014498 0.030153 -0.109819 0.083352 0.054048 -0.150752 -0.121094 0.200448 -0.141798 -0.067338 -0.115262 0.025422 0.028335 -0.058697 0.074495 0.163172 0.089363 0.117584 -0.137646 0.062079 0.012114 -0.076535 0.201109 -0.246828 0.028606 -0.032682 0.069949 -0.007640 -0.033554 -0.081914 0.051181 0.056360 -0.176180 -0.156957 0.125095 0.098621 -0.121076 0.061697 0.062894 0.044929 0.178078 0.137046 0.102218 -0.024814 0.004874 0.043961 -0.252179 0.077202 -0.035695 0.126339 -0.261050 0.082314 -0.021230 -0.152690 -0.010252 0.043651 -0.030335 -0.058206 0.186887 0.079839 -0.097516 -0.039910 0.036572 0.065545 0.024607 0.125917 0.029861 -0.067306 -0.032127 0.055364 0.016762 -0.061752 -0.099354 -0.054617 
هم -0.133894 0.044963 -0.061479 -0.033787 0.155343 0.008976 -0.092621 0.016755 0.140316 0.081648 0.096072 -0.101954 0.208423 -0.025250 0.064014 0.043296 -0.071147 0.050466 -0.203835 0.024856 -0.224478 0.102002 0.087427 -0.053245 -0.045761 0.097579 0.064520 0.108825 0.142204 -0.126089 -0.019222 0.214442 0.144539 0.087301 0.077975 -0.039325 -0.002702 -0.129192 0.065720 -0.008478 -0.152327 0.041823 -0.031678 -0.098232 -0.149201 -0.026516 -0.097652 -0.038911 0.087097 -0.071850 0.194618 -0.039225 0.116716 0.022125 0.079004 -0.234748 0.159807 -0.193264 -0.029326 -0.001904 -0.010794 0.060818 -0.084986 0.032238 0.006279 -0.221056 -0.072142 0.094002 -0.097744 -0.020908 -0.049264 -0.023955 -0.150369 -0.017492 -0.064352 -0.043918 -0.001932 -0.142688 0.197704 -0.111941 -0.066931 0.150420 -0.006581 -0.122694 -0.197665 0.110341 0.235210 0.226248 0.142581 0.025298 0.156954 0.031109 0.056186 -0.015731 0.127703 -0.098662 0.112241 0.200449 -0.205850 0.078759 -0.239755 0.031353 -0.035529 0.039626 -0.172827 -0.093254 -0.088426 0.034646 -0.012486 0.158379 0.114037 0.043019 -0.180647 0.045915 0.037449 -0.093059 0.017316 0.130172 -0.057489 0.012457 0.023055 -0.116573 -0.120636 0.056316 -0.016551 0.008113 -0.132493 0.031153 0.118202 0.149746 0.038876 -0.009162 -0.164692 0.121905 -0.161706 -0.029287 -0.114288 0.013377 0.069854 0.021824 0.115276 0.179490 0.086189 -0.021587 -0.138430 0.059498 0.147034 -0.112164 0.180535 -0.152155 -0.017134 -0.028422 0.118995 -0.030503 -0.058354 -0.023353 0.126522 0.170307 -0.130372 -0.168379 0.201503 0.124716 -0.155533 -0.152054 0.131530 0.138693 0.034746 0.062371 0.120541 -0.039699 -0.022112 0.124101 -0.080901 0.216603 0.063024 0.090457 -0.120343 0.125785 0.055297 -0.096214 -0.025171 0.083342 -0.128221 -0.122672 0.148060 -0.080986 -0.145602 0.054398 0.083096 -0.056481 -0.112484 0.196024 0.110147 -0.158927 -0.076727 0.041582 0.027749 -0.143250 0.000896 -0.029552 
- -0.093511 -0.185606 0.120712 -0.299956 0.143331 -0.069275 0.067532 -0.108376 -0.119190 -0.154756 -0.202973 -0.032624 0.067156 -0.010819 0.022654 0.101544 -0.084131 0.076913 -0.081151 0.190912 0.061131 0.048144 -0.013887 0.098264 -0.026037 0.161151 0.172515 0.062720 0.082316 -0.081614 0.213404 -0.015993 -0.162871 -0.060123 -0.091145 -0.032251 0.096449 -0.078309 0.108603 0.038864 -0.109485 -0.015527 0.090396 0.074908 -0.061385 -0.008253 0.012936 0.022960 0.085432 0.074891 -0.375207 0.025826 0.014207 -0.040468 0.093578 -0.024554 -0.078931 0.095620 -0.129274 -0.006192 -0.312323 0.015792 -0.084845 0.095659 0.026525 0.147184 -0.087439 0.125842 -0.070620 -0.106070 0.096894 0.109767 0.024575 0.020551 -0.148657 0.210047 0.018416 -0.063366 -0.015638 0.055996 0.200702 0.130495 0.105797 -0.133040 0.056730 0.076725 -0.011045 -0.088186 -0.129164 0.116095 -0.057090 0.142845 -0.166730 0.174956 -0.108465 0.052119 -0.011648 0.094241 -0.316461 0.135062 0.025695 -0.108273 0.009323 0.094867 -0.062454 0.129544 0.012684 -0.025177 -0.032044 -0.140454 0.158829 -0.237476 0.033380 -0.038946 -0.034431 -0.073455 -0.073077 0.001712 0.061923 -0.073128 0.001509 -0.159471 -0.054846 0.097406 0.076088 0.250174 0.021854 -0.026977 0.003764 0.009417 0.004353 -0.007839 -0.142712 0.186567 -0.039792 -0.081593 0.048752 -0.121934 -0.036517 0.055640 0.201070 -0.002232 0.045510 -0.017688 -0.107971 -0.104694 0.055117 0.005587 0.212123 -0.081787 -0.094581 0.066392 -0.193214 -0.104344 -0.020139 0.123691 -0.084951 0.061252 0.040235 -0.175571 0.227691 -0.150697 0.003325 0.065885 0.197855 -0.057532 0.171501 -0.005340 -0.048412 0.041145 0.126423 0.101003 -0.106985 0.223437 -0.001594 -0.047097 0.055543 -0.154640 -0.106533 0.106648 -0.024120 0.249716 0.010001 -0.110584 -0.011361 -0.018709 0.372790 0.137661 0.143872 0.032553 -0.052346 0.024055 0.041095 0.082455 -0.054547 0.173794 -0.045951 -0.248280 0.110469 0.177345 
ذلك 0.043487 -0.088976 0.125869 -0.061617 -0.036443 -0.104916 0.069477 0.018078 -0.006272 -0.042853 0.090763 -0.053552 0.181170 0.095758 -0.038111 0.099360 0.107773 0.014131 0.080333 0.010908 0.056025 0.166598 0.033595 -0.086300 0.037181 0.029338 0.057543 0.095023 -0.074872 -0.027425 -0.016524 0.084984 -0.110592 0.239351 0.011423 0.031573 -0.041433 0.133166 0.000998 -0.030639 -0.069843 -0.005473 0.042216 -0.133382 -0.068821 -0.003919 -0.085699 0.004063 -0.097471 0.099929 -0.127633 0.062995 0.024139 0.051464 -0.029084 -0.103182 0.011644 -0.180540 0.009282 0.024506 0.016603 0.126340 0.013670 -0.163127 0.031336 -0.074289 -0.054562 -0.024316 0.085634 -0.009936 0.159607 0.162698 0.003124 0.006672 0.074894 -0.025251 -0.040979 0.043259 -0.065329 -0.125566 -0.010027 0.176154 0.033972 0.035207 0.059638 0.071096 0.078585 -0.030033 -0.000584 -0.133369 -0.026314 0.060038 0.025931 0.007073 0.047931 -0.122113 0.049842 0.033365 0.134299 0.190875 0.106877 -0.000858 -0.110662 -0.036593 0.053707 -0.102797 0.097715 -0.038636 0.029627 -0.087585 0.066493 -0.055257 -0.091498 -0.038218 -0.074644 -0.165595 0.046565 -0.009812 0.177871 -0.006833 -0.044962 -0.137837 0.091006 -0.053236 0.015596 0.062753 -0.050168 0.045038 0.015411 0.081761 0.049507 -0.010779 -0.143304 -0.053813 -0.074887 -0.016370 0.066993 0.066898 0.091621 0.083412 0.096153 0.018420 0.107515 0.019850 0.003747 0.128995 -0.091292 0.011307 0.178210 -0.120910 0.031020 -0.013863 0.081220 -0.059646 0.001808 0.074090 0.097683 0.131104 -0.030314 0.046527 0.041569 -0.132010 0.027074 -0.006219 0.175902 -0.093970 0.093743 0.137187 0.104878 0.025487 0.047814 0.003450 0.040311 0.011528 -0.068569 -0.005543 -0.012684 0.001283 -0.017820 0.101306 0.037138 0.098126 -0.128154 0.026960 -0.111563 -0.061614 0.015183 0.032105 0.011834 0.140530 -0.045393 -0.019312 0.082665 -0.014590 0.010516 0.115438 0.073884 -0.128072 0.045894 -0.135476 
was 0.027952 -0.043207 0.109304 -0.213524 0.020790 -0.160947 0.079266 0.022373 -0.133720 0.002311 -0.097725 0.030307 0.064692 -0.176834 -0.055926 0.109730 0.003870 -0.144306 -0.037257 0.149589 0.037836 0.230324 0.074642 -0.018124 0.097099 0.039072 -0.050378 -0.020820 -0.004034 -0.010590 -0.011338 0.003329 0.068771 0.274426 0.134391 -0.097866 0.028866 0.048346 0.116141 0.162177 -0.115194 0.019634 -0.091292 -0.050526 -0.245628 0.140750 0.094259 0.149781 0.096877 0.054829 -0.199109 -0.071302 0.009984 0.077839 0.032773 -0.101560 0.228278 -0.108788 -0.142582 0.073911 -0.116892 -0.075194 -0.054048 0.015715 -0.147322 0.070521 -0.055394 -0.226624 -0.037279 0.309289 -0.153536 0.031499 0.167216 -0.056074 0.085972 0.358700 -0.193025 0.060498 -0.031244 -0.125173 -0.069047 0.162779 0.044665 -0.227253 0.171140 -0.027867 0.079243 -0.022491 -0.025421 0.042741 -0.022306 -0.011347 -0.012625 -0.087290 -0.040709 -0.136204 -0.032640 0.012690 -0.204334 0.094209 0.165780 0.053796 0.063495 0.041158 0.141688 -0.035050 0.039349 -0.065504 -0.000244 -0.133549 0.071687 0.256391 0.045391 0.100813 0.000976 0.143552 -0.089194 0.129654 -0.189797 -0.014487 -0.062465 -0.124530 0.081917 -0.092199 -0.118425 0.031018 0.021995 0.020702 -0.046152 0.137070 0.033475 0.007445 0.096636 0.028974 -0.125150 -0.110661 0.033033 0.092938 -0.078198 -0.127937 0.278332 -0.005390 0.033999 -0.046484 0.219752 0.008417 -0.008978 0.157463 0.072022 -0.018919 0.092610 -0.028753 0.114208 -0.065019 -0.109105 0.310674 -0.123921 0.070233 -0.048491 0.217174 0.054272 0.064801 -0.004396 0.010609 -0.054329 -0.000672 0.005996 -0.054689 0.151595 -0.171279 0.290009 0.045781 0.003806 -0.015736 -0.060395 0.091631 0.013629 -0.021186 0.061542 -0.019725 -0.114680 -0.038200 0.089176 0.199399 0.151308 -0.041356 0.035016 0.139099 0.182302 0.112329 -0.028073 -0.192456 -0.172393 0.097519 0.055968 0.177277 -0.027508 -0.068421 0.093397 -0.150675 
هذه -0.092181 -0.113557 0.128578 -0.124357 -0.015978 0.104722 0.025844 -0.139649 -0.056975 -0.121920 0.190818 -0.045273 -0.070448 -0.035220 -0.090190 0.035520 0.145671 0.002759 0.190315 0.131325 -0.018169 0.043746 0.089494 0.173597 0.095639 -0.068037 0.063559 -0.054935 -0.051033 0.008334 -0.066049 0.015495 -0.098675 0.042466 -0.046511 -0.092103 0.115371 -0.233645 0.160569 0.059421 0.008534 -0.056045 0.069573 0.023331 -0.091803 0.120521 0.160608 0.055568 -0.115052 0.010250 -0.149718 -0.010533 0.003253 -0.064970 0.147543 -0.174968 0.095695 -0.026626 -0.076422 -0.048590 -0.011306 0.043942 -0.010928 0.057444 0.276503 -0.038208 -0.016221 -0.022938 -0.001089 0.053504 0.133089 0.027775 -0.127548 -0.112604 -0.085736 0.085319 0.010647 -0.009252 0.021980 0.036138 0.104359 -0.030173 0.012210 -0.003442 0.086129 0.141568 0.030214 -0.148876 -0.013419 0.101933 0.082790 -0.171264 -0.020281 -0.038553 -0.027438 -0.152305 -0.127836 -0.029284 -0.022080 0.106275 -0.154354 0.166685 -0.167457 -0.041239 -0.089742 -0.108436 0.049358 -0.045648 0.089974 -0.272479 -0.055548 0.017603 -0.064501 -0.200331 -0.064372 -0.054354 0.140883 -0.042927 0.127645 -0.140838 -0.094575 -0.148535 0.051406 -0.067063 -0.079153 -0.032621 -0.045752 0.044494 0.063657 0.095937 0.120694 0.016258 -0.033013 -0.036244 -0.172618 -0.132024 -0.053979 0.102005 0.095968 -0.041218 -0.067383 0.042091 0.037988 0.088737 -0.150232 -0.047313 0.079280 -0.040813 0.027048 -0.065667 -0.028406 0.046198 0.092991 -0.020274 -0.045640 -0.059963 0.089430 -0.090038 -0.099236 -0.108568 0.046131 -0.016932 -0.093660 -0.007312 0.051509 0.115872 0.023532 -0.135946 -0.037004 -0.124561 0.082572 0.056937 -0.075504 0.004342 -0.091625 -0.122300 -0.134399 -0.035655 -0.191157 0.108835 -0.027908 0.186016 0.179039 -0.046574 0.059204 0.071686 0.008741 0.092270 0.100092 0.025710 0.207136 0.008610 -0.015756 -0.091796 -0.072018 0.080144 -0.011778 -0.172357 0.169400 0.000505 
for -0.038892 -0.045303 0.198526 -0.040330 -0.041409 -0.115545 -0.018815 0.100082 0.046365 -0.061071 0.037876 0.058088 0.058225 -0.027841 0.082821 -0.045567 0.051808 0.010986 0.024082 0.086957 -0.060606 0.133649 0.035265 0.012717 0.067680 0.043067 0.112444 0.162349 0.048684 -0.079010 -0.018615 0.053562 0.072551 0.139916 0.136009 0.074290 -0.021736 -0.102839 0.034262 0.068434 0.018432 0.127904 0.062170 0.053022 -0.166548 0.001097 -0.068753 0.084749 -0.019519 -0.012947 0.025423 0.118801 0.045294 -0.182652 -0.064310 -0.139126 -0.000300 0.090618 -0.045088 -0.090912 -0.070501 0.033169 -0.000373 -0.037118 -0.005920 0.029672 0.019376 0.035014 -0.093410 -0.016684 -0.036424 0.111091 -0.012066 0.015850 0.108735 0.067777 -0.024285 -0.046543 0.049003 -0.087527 0.025967 0.060592 -0.012786 -0.044995 -0.109371 0.117360 0.105419 0.170940 -0.019705 0.068412 0.215859 -0.082454 -0.056626 0.026510 -0.092464 -0.025168 0.025004 0.120374 -0.001438 0.144063 0.008593 0.012615 -0.074236 -0.088124 0.038091 0.127943 -0.069620 -0.097138 0.056674 0.016562 -0.008741 0.099759 0.032455 0.093670 0.070736 0.079394 0.016473 0.071992 0.174335 -0.037526 -0.013838 -0.002986 -0.062446 -0.003768 -0.044530 -0.019788 -0.011873 0.010356 -0.038475 0.130829 -0.025384 -0.006651 -0.080291 0.093872 -0.068055 0.024090 -0.036147 0.178173 0.125181 0.083278 0.118741 -0.108582 -0.179064 0.090800 -0.007059 -0.032311 -0.037648 -0.026566 0.166953 -0.017285 0.032726 0.047253 0.075634 -0.008662 0.022646 0.032067 -0.170541 0.067735 -0.043281 -0.204277 0.144343 0.023420 0.055608 -0.010789 0.062244 0.032360 -0.007182 0.185446 0.285204 0.016684 -0.043191 0.053008 -0.068008 0.024697 0.072052 0.020472 -0.125454 -0.035524 0.058060 0.069162 -0.067682 0.003730 0.141922 -0.083715 0.028137 -0.010446 0.126117 0.035891 -0.009336 0.087732 0.069505 -0.130518 0.065123 -0.101027 -0.109762 0.124560 -0.022920 -0.055640 0.132601 -0.071812 
are -0.049055 -0.007247 -0.100007 -0.027530 0.076580 0.072857 -0.260179 0.192170 -0.138903 -0.100376 0.181135 0.120085 0.052029 0.201912 -0.116079 -0.045545 -0.039065 -0.142678 0.005436 0.176095 -0.154854 0.038873 0.144190 0.116632 0.148371 0.058627 0.200785 0.073374 0.102716 -0.202148 -0.091503 0.102138 -0.042716 -0.090394 0.090739 0.012464 0.081985 -0.280528 0.117422 0.015022 0.089730 -0.072602 0.031987 0.143582 0.047064 -0.013301 0.146503 0.098631 0.153124 0.058645 -0.011605 0.038328 -0.079799 0.013674 0.179941 -0.130519 0.050296 -0.116444 -0.109973 -0.085195 -0.087568 0.151707 -0.074037 -0.032931 0.102692 -0.220977 0.167276 -0.084389 -0.051450 0.181417 0.049072 -0.140919 -0.146154 -0.079856 -0.147025 0.058085 -0.027659 0.045748 -0.070157 0.060707 0.034813 -0.106434 0.012227 -0.092324 -0.179056 0.018157 0.091720 -0.023612 0.032015 0.048459 0.235005 0.058392 0.033738 -0.061449 0.031326 -0.105200 0.055643 -0.108555 0.022201 -0.059459 0.122984 0.111486 -0.045914 0.039409 0.138149 -0.096924 -0.111666 0.013624 0.116856 -0.005845 0.065154 -0.061091 0.025517 -0.130614 -0.028298 0.034288 -0.090033 0.055356 0.052532 -0.087869 0.035981 -0.085469 0.049573 -0.060717 -0.023746 -0.110938 -0.240538 -0.059749 0.074973 0.229864 -0.040298 -0.163494 -0.082868 0.048076 -0.077909 -0.198154 -0.093514 0.004164 0.080251 0.023835 0.009222 -0.100561 0.118090 0.220430 0.030902 0.022118 0.113650 -0.083280 0.080711 -0.241373 -0.114062 0.075208 0.072030 0.019347 0.116193 0.026061 -0.064269 0.097937 -0.049413 -0.044324 -0.058124 -0.018423 0.016386 0.018184 0.121015 0.085070 0.033345 0.078786 0.077252 0.018960 -0.006994 0.151919 -0.024396 -0.141151 0.056900 -0.033783 0.099725 0.033202 -0.070095 -0.121405 -0.081356 0.135472 0.220911 -0.328472 0.065730 -0.083270 -0.028317 -0.089388 0.161274 0.211632 0.047434 -0.018274 0.096375 -0.110916 -0.088353 0.177869 0.123805 -0.264058 0.088058 -0.100079 
have -0.009028 -0.049512 0.020830 0.095905 -0.029133 -0.001495 -0.065028 0.124146 0.015509 0.168102 0.098900 0.068142 0.065012 0.029119 0.071958 -0.004750 -0.097446 0.088639 0.043169 0.189806 -0.090379 0.051999 0.034660 -0.016114 0.189211 0.087087 0.146116 -0.050256 -0.104040 -0.014476 -0.038330 0.083420 -0.114831 0.113198 -0.016699 0.083933 0.018896 -0.103189 0.078589 -0.003224 0.097059 -0.022376 0.121388 -0.034733 0.020744 -0.026571 -0.149797 0.017785 0.064066 0.133646 0.006172 0.131588 0.071166 -0.079444 0.053447 -0.221030 -0.128342 0.009288 0.098446 -0.179499 0.056125 0.106812 -0.108363 -0.042473 0.088143 -0.053572 -0.044600 0.005335 -0.219747 0.035939 0.058207 0.147546 0.092555 -0.061857 0.047726 -0.093020 0.115833 -0.016139 0.033620 0.066131 0.054419 0.011357 0.109163 -0.117368 -0.101992 0.017790 0.099500 0.118704 0.090285 -0.027005 -0.013911 -0.196216 0.166270 0.061795 -0.069037 -0.007349 0.084005 0.212653 -0.055152 -0.010826 -0.001176 -0.058285 -0.138543 0.013546 -0.091395 -0.226260 0.026447 0.117732 0.083588 -0.131864 0.102297 0.059435 -0.097486 0.015583 0.058746 -0.083238 -0.019277 0.028328 -0.023499 -0.131952 -0.040295 -0.039242 0.107475 -0.014992 0.047330 -0.033606 -0.122021 0.041973 0.136647 0.010541 -0.035953 -0.035159 -0.049233 0.101658 -0.020413 -0.053757 0.104370 0.065045 0.123183 0.078705 -0.017167 -0.051180 0.266922 0.221183 -0.098603 0.164132 -0.132138 -0.015302 0.011229 -0.033754 0.030747 -0.174714 -0.090754 0.019282 0.039088 0.044066 0.010487 0.097527 0.107765 0.039748 0.177423 0.015108 0.005134 -0.103488 0.033523 0.034240 -0.034227 0.003310 0.149562 -0.175031 0.240883 0.146312 -0.011308 0.034845 0.089911 0.069256 0.016462 0.060263 0.015575 -0.142886 0.025633 0.035386 -0.014944 -0.150388 0.060604 -0.090097 0.066907 -0.014657 0.031288 0.111501 -0.134808 0.084781 0.024491 -0.059108 -0.177247 0.097370 0.123534 -0.133529 0.227364 0.037515 
: 0.072118 -0.338225 0.060334 -0.048309 0.116200 -0.196973 0.006143 0.192585 0.079946 -0.015517 -0.068869 -0.006782 0.062828 0.232527 -0.092190 -0.144663 -0.118270 0.002021 0.032800 0.096973 -0.019942 -0.082055 0.130357 -0.065634 -0.063089 0.086428 0.039393 0.236658 -0.040461 -0.098690 0.081220 0.131396 -0.126876 0.070517 0.120187 -0.187429 0.050087 -0.121490 -0.089554 -0.194877 0.008219 -0.121250 0.012447 0.108255 -0.073161 -0.009406 -0.087233 0.010563 0.183248 0.016174 -0.203244 0.144467 -0.148493 -0.308623 -0.046394 -0.116888 0.153171 -0.084589 0.052765 0.036900 0.042062 -0.044766 -0.115553 -0.067713 -0.062925 -0.049728 0.251214 -0.123720 -0.036242 -0.005057 0.017863 0.151289 -0.032938 0.025553 -0.079137 0.134814 -0.088522 0.032443 0.119793 0.011470 0.021148 -0.213313 0.077721 -0.241942 -0.155237 -0.043853 0.195449 -0.030346 -0.253275 -0.061243 -0.012491 0.134089 -0.021265 -0.049810 -0.195506 -0.220414 -0.004474 -0.089758 -0.246421 -0.127073 0.110864 0.090038 -0.070386 -0.092538 0.012023 -0.134982 -0.185228 0.184018 0.073408 0.034637 -0.210176 -0.237605 0.023022 -0.098293 -0.164460 -0.073097 0.090687 0.020077 0.030945 -0.161491 -0.059762 -0.123659 -0.191407 -0.192883 -0.278311 -0.125101 0.009557 -0.101599 0.167540 -0.009377 -0.233894 -0.011230 -0.089692 0.194397 -0.058087 -0.152418 0.183607 0.115066 0.256565 -0.145572 0.113914 0.115409 0.010349 -0.033791 0.064882 -0.019126 0.095599 -0.108211 -0.024474 0.137179 0.371036 -0.099213 -0.069962 0.119996 0.029705 0.082865 -0.050086 0.156176 -0.141932 -0.165430 -0.131765 -0.025422 0.096865 0.331984 -0.173896 -0.168933 0.070886 -0.068295 -0.010127 -0.008124 0.041277 0.023266 -0.151009 0.164319 0.131571 -0.196015 0.002633 0.016390 -0.094083 -0.132513 -0.117481 0.076799 -0.036844 -0.014497 0.038486 0.115045 0.089076 -0.170780 0.145122 -0.001826 -0.075786 0.204604 -0.079502 -0.138826 0.085708 0.289456 -0.131994 -0.224372 0.354411 -0.180363 
but 0.057959 -0.218763 0.047746 -0.179554 0.068666 -0.089151 0.061584 0.086712 -0.113745 0.084623 0.139529 -0.005245 0.168034 -0.013655 0.127050 0.076060 0.072914 0.031440 -0.230642 0.150332 0.020506 0.112479 -0.010090 0.053165 0.200563 -0.085100 0.066311 -0.072090 -0.105318 0.086511 -0.051120 -0.008138 -0.026503 0.091266 -0.140410 0.046627 0.176316 -0.121916 0.126961 -0.155437 0.132873 -0.067847 0.009878 -0.073056 -0.125325 -0.070340 -0.268388 0.116222 0.082908 -0.019022 -0.057511 -0.090643 0.082971 -0.006657 0.025052 -0.111633 -0.014941 -0.146525 -0.038523 0.043034 -0.115520 0.028065 -0.088728 -0.107649 -0.126744 -0.242821 -0.120512 0.009758 0.038652 -0.083524 -0.031728 0.020503 0.064842 -0.015496 0.102340 -0.031730 -0.051139 0.022671 0.063424 -0.247976 0.179823 -0.041224 -0.150615 -0.226424 0.049833 0.003024 -0.128614 -0.075593 0.207700 -0.022311 -0.123516 0.175290 0.025431 0.083395 0.083195 0.037853 0.029943 -0.026459 -0.032425 0.077173 0.114651 0.004168 -0.135071 0.017784 0.080573 -0.278579 0.030461 -0.061531 -0.119328 -0.067914 0.058799 -0.031826 -0.066436 0.131350 -0.070577 -0.033668 0.082431 0.052694 0.163416 -0.161257 0.010330 -0.043611 -0.170690 0.047515 0.004165 0.097043 0.083158 0.031949 0.021192 0.123451 -0.006423 -0.138465 0.051157 0.042687 0.014711 -0.008229 -0.086562 0.148138 -0.027201 0.235989 -0.207802 0.124763 -0.074464 -0.001343 0.080230 0.150088 0.076115 0.058046 0.186879 -0.036752 0.036460 -0.053571 0.006751 -0.196545 0.099575 0.123427 0.112019 -0.069700 -0.147789 0.101753 0.140151 -0.072701 0.189613 0.000193 0.232180 0.021636 0.174539 0.028864 0.166028 -0.233490 -0.053672 0.118311 -0.088490 -0.165172 -0.080500 -0.108660 0.123567 -0.094194 0.010934 0.048845 -0.090043 -0.050426 0.195505 0.083131 -0.023213 -0.085621 -0.042630 0.056237 0.149091 0.022529 -0.187032 0.003033 -0.024541 -0.126628 -0.081970 0.129112 -0.070539 -0.283174 0.062720 -0.070787 
هو -0.023559 -0.149796 0.215597 0.035857 0.147546 0.078851 -0.186303 -0.052252 0.066155 -0.105959 0.030392 0.016860 0.149419 -0.124881 0.050301 -0.026502 0.008092 0.057450 -0.039869 0.142804 0.042306 0.149647 0.055447 0.112725 0.041212 -0.084298 0.060437 0.076431 0.106094 0.038313 0.117595 0.042058 0.071746 -0.048938 0.058944 -0.115531 0.113255 0.048420 0.058273 -0.080598 0.095937 -0.028862 -0.000351 0.077556 -0.134109 -0.161756 0.103169 -0.050793 0.054070 0.032326 -0.155288 0.118686 0.081679 -0.106208 0.017525 -0.072565 0.115948 -0.070032 -0.118347 -0.089352 -0.159432 -0.077492 -0.068524 -0.267799 -0.113426 -0.100422 -0.011686 -0.027402 0.158617 -0.009392 -0.062528 0.105994 -0.125969 0.073502 -0.156154 0.016808 -0.061038 0.039911 0.024462 -0.078442 0.118840 0.033259 -0.045483 0.131671 -0.085905 -0.076481 -0.054886 -0.175814 0.089938 -0.027928 0.187515 -0.092585 -0.201626 0.081528 -0.199168 0.040957 0.048636 -0.053711 0.110359 0.046019 -0.022758 0.025765 -0.053226 0.007905 -0.067233 -0.044495 0.117960 -0.028320 0.157952 -0.087474 0.140913 -0.034288 -0.058957 0.001933 0.029988 0.047033 0.091230 -0.011199 -0.022990 -0.039185 -0.080398 -0.100662 -0.193537 0.025844 -0.116577 0.077333 -0.096571 0.012540 -0.024489 -0.043899 0.015368 -0.135413 0.123362 -0.194178 -0.167186 -0.084943 0.101375 -0.075869 0.159494 0.025498 0.182014 0.057192 0.019444 0.029234 -0.033034 0.025924 -0.033808 -0.034519 0.120484 0.001770 0.028270 -0.014295 0.067967 0.031825 -0.174507 -0.010097 0.054615 0.049370 -0.091181 0.115418 0.164919 0.114120 0.031844 -0.071572 0.166638 -0.227206 0.018807 0.176525 0.185197 -0.099743 0.124379 0.111590 0.087466 0.013195 0.210080 -0.047989 0.047797 0.064557 0.007076 0.072471 0.160034 0.057487 0.120208 0.189062 0.111603 -0.022812 0.050194 -0.137099 0.220439 -0.142710 0.093051 0.056963 0.070686 0.045100 0.151955 0.132131 -0.129435 -0.171237 0.047894 -0.072309 
what 0.061320 -0.186449 0.295949 0.120151 0.097979 -0.043475 0.037018 -0.172872 -0.110978 0.080393 0.004416 0.116906 0.164357 0.047622 -0.083987 0.059734 -0.135246 0.237362 0.056423 -0.066509 -0.006460 0.210854 0.282514 -0.150921 0.129131 -0.068857 -0.059655 -0.199458 0.168400 -0.277230 -0.052904 0.073209 -0.031800 -0.125834 -0.032938 0.042322 0.020937 -0.061457 -0.128879 -0.205202 0.040968 -0.009140 0.086275 -0.075575 -0.067378 -0.026840 0.067072 0.036149 -0.051513 0.199383 -0.092007 -0.063582 -0.086147 0.009586 -0.056317 0.192353 0.019241 0.064792 -0.089831 -0.179749 0.016457 0.076516 -0.050227 -0.114677 -0.071588 -0.097950 -0.103440 -0.031785 0.110610 -0.297960 0.084586 0.024271 -0.070317 0.020042 0.149249 -0.071075 -0.117068 0.056800 -0.082448 -0.027891 -0.048993 0.118518 0.101313 -0.046026 0.100179 -0.145331 0.083213 -0.137249 0.133146 -0.074129 0.232819 0.089795 -0.078233 0.243510 0.083057 -0.296574 0.101198 0.035212 0.060473 0.033063 -0.042426 0.026700 -0.035529 0.168804 -0.066971 -0.094817 -0.170057 -0.109963 0.062954 -0.052896 -0.012826 -0.176646 -0.101236 -0.055450 0.150529 -0.008110 0.030226 -0.086624 0.029349 0.062485 0.080018 -0.174623 -0.013599 0.020590 -0.103711 0.069121 -0.134585 -0.116165 0.088173 -0.063091 0.007021 0.033629 0.131525 0.166037 -0.063911 -0.385015 -0.012980 0.136503 0.116107 0.118525 0.001407 -0.205124 -0.010466 0.085402 -0.211587 0.020670 -0.299055 -0.052912 0.011181 -0.044820 0.162853 0.000350 0.095830 -0.031135 -0.123956 0.109604 0.009002 0.007298 -0.192524 -0.060384 0.243453 -0.090403 0.002758 -0.217415 0.264046 -0.247341 0.081081 0.132533 0.004582 -0.103074 0.034890 0.254721 -0.095788 -0.057131 0.046418 -0.106370 0.016131 0.106816 0.090077 0.214288 0.089568 0.128188 -0.038315 0.198497 -0.034204 -0.075014 0.045708 -0.157206 0.123520 0.045547 0.002749 0.260095 -0.011200 -0.082267 -0.022851 0.230709 0.147067 0.022646 0.004638 -0.274007 
on 0.012562 -0.111976 0.051373 -0.103066 0.097290 -0.000237 -0.039515 0.026590 0.090079 -0.040880 0.017875 -0.082237 0.090669 0.001768 0.066189 -0.017370 -0.159416 0.036051 -0.018350 0.121575 0.116289 0.062166 0.097240 -0.096239 0.024465 0.048715 0.029969 0.077525 0.068226 -0.154117 -0.043394 -0.101094 -0.011457 0.033055 0.105105 -0.011107 0.120320 -0.062633 0.077005 0.070937 -0.025933 0.087093 0.045627 0.050995 -0.101210 -0.068491 0.120924 -0.127961 -0.053454 -0.015144 -0.007802 -0.005815 0.030006 -0.060055 -0.037031 -0.122895 -0.025424 -0.206331 0.022147 0.065865 -0.095882 0.047580 -0.182508 -0.049961 0.096658 -0.113436 0.122549 0.001308 -0.076921 0.111339 0.015450 0.188151 -0.018616 0.113108 -0.010832 0.156023 -0.102441 -0.122485 -0.094954 0.018975 -0.057734 0.145292 0.025357 0.181970 0.014696 0.039193 -0.091333 -0.071521 0.024579 -0.052346 -0.051768 0.065541 -0.077241 -0.037687 -0.177630 -0.055752 -0.023815 0.057893 -0.116336 0.148551 -0.080030 0.070075 -0.091157 0.036504 0.035410 0.057691 0.000117 -0.028886 0.139066 0.001034 0.002304 0.047293 0.062972 0.125518 -0.032919 -0.001244 -0.034777 -0.154414 -0.053929 -0.023575 -0.055537 -0.054872 -0.136255 -0.112154 0.057298 0.039243 -0.133552 -0.016738 0.172956 -0.045416 0.009113 0.180336 0.062243 -0.009497 0.054654 -0.039718 0.006270 -0.108374 -0.011965 0.098540 0.117366 -0.069658 0.021888 0.155863 -0.013533 -0.022157 -0.015553 0.041261 0.094742 0.018757 0.009433 -0.032177 -0.095544 -0.031486 -0.036120 0.026995 -0.090734 0.006206 -0.116193 -0.024819 0.079227 -0.029508 0.075130 -0.032691 -0.055730 0.003383 0.120792 0.095174 0.217261 -0.179352 -0.046292 0.103690 0.031604 0.014138 -0.029852 -0.051615 -0.099747 0.014233 0.043374 -0.039074 0.010593 -0.004634 0.074327 -0.161591 0.080628 -0.029227 -0.048996 0.138746 0.139580 0.143497 0.012329 0.064483 -0.017651 -0.073542 -0.090315 0.109535 0.028812 -0.099254 0.123500 0.097215 
لا 0.271838 -0.213087 0.017686 0.012648 0.054867 -0.029427 -0.002285 0.126682 -0.024396 -0.027929 0.006084 -0.068305 0.112805 0.071783 0.242870 0.166734 -0.031231 0.162226 -0.102722 0.082635 -0.147178 -0.076506 0.204760 0.134483 0.085657 -0.029426 0.145064 -0.056021 -0.123847 -0.004101 -0.121283 0.054861 -0.119827 0.050698 0.028462 -0.011661 -0.064250 -0.089223 0.110875 -0.221973 0.100413 0.038707 0.071731 0.187708 -0.054861 -0.100615 -0.088984 0.082688 0.003651 -0.145853 -0.103864 0.080516 0.017711 -0.109480 -0.308438 -0.339047 -0.037777 -0.115653 0.071498 -0.041054 0.065420 0.036092 -0.175094 -0.084091 -0.198729 -0.014548 0.056322 0.124679 0.051000 -0.065863 -0.115084 -0.005250 -0.140272 -0.096580 0.337730 0.029185 -0.170826 0.129323 -0.174673 0.126992 0.036059 0.069280 -0.148469 -0.084187 0.021454 -0.081321 0.132281 -0.009220 0.057530 0.073753 -0.066943 -0.016966 -0.121472 -0.086313 -0.067055 -0.185729 0.051199 -0.105573 0.093323 0.120485 -0.009640 -0.059149 -0.127431 -0.064965 0.061850 -0.122259 -0.092468 0.257694 0.039987 -0.067566 0.140107 0.085448 -0.121023 0.139796 -0.038471 -0.088128 -0.218804 -0.117923 0.031115 0.061488 -0.088875 -0.093525 0.083720 -0.162163 -0.173124 0.107787 -0.110907 -0.024163 0.125518 0.107788 0.107455 0.007282 -0.179575 0.343814 0.051590 -0.128795 -0.286836 -0.060469 0.261045 0.085158 0.127681 0.151714 0.135689 0.122417 -0.133499 0.135756 0.225450 -0.016201 0.146972 -0.149705 0.072405 -0.183073 -0.031857 -0.029278 0.018775 -0.139183 0.027638 0.126922 -0.197569 -0.156807 0.013118 0.031448 0.033928 0.048990 0.049901 -0.069921 0.360886 -0.001829 0.005581 0.018961 0.027747 0.018352 -0.025320 -0.057400 -0.077099 -0.153467 0.141113 0.138139 0.026379 0.035392 -0.203008 0.143802 0.127325 0.115885 -0.025142 -0.147636 0.100755 -0.171611 0.278764 0.054741 -0.150614 -0.040969 0.200116 0.021247 0.108920 -0.018662 0.072309 -0.179109 0.148800 -0.113242 
لكن 0.192292 -0.076637 0.064808 0.109709 0.001388 -0.083119 0.021463 0.016035 0.081837 -0.217948 0.107641 0.114749 0.202735 0.007684 -0.029232 0.116545 -0.048113 0.067801 0.039987 0.011016 0.025734 0.168401 -0.066351 0.144759 0.031690 -0.034476 0.030564 -0.053208 -0.089601 -0.165128 0.080696 0.025718 -0.149860 0.159813 -0.028134 0.149676 -0.241469 0.008227 0.001436 0.005234 0.113348 -0.122078 0.284915 -0.162197 -0.095799 -0.136249 -0.023385 0.057140 -0.144052 -0.150578 -0.082312 -0.061249 -0.043165 -0.044382 -0.149253 -0.107635 0.207585 -0.227168 0.051014 -0.175666 -0.107711 0.110188 -0.148034 -0.033906 -0.063922 -0.069836 -0.044942 -0.037835 0.110926 0.150461 0.189901 0.101142 0.111551 -0.040544 -0.048649 0.209848 -0.075010 -0.139900 0.187608 -0.070969 -0.068106 0.054145 -0.031043 -0.047897 -0.029928 0.008047 -0.031466 -0.030704 0.056244 0.163036 0.180859 0.100474 0.020672 -0.173932 -0.049916 -0.054197 0.022652 0.108295 0.146795 -0.012354 -0.001181 -0.086209 -0.085953 0.074360 0.067044 0.122943 -0.008285 0.096649 -0.016071 -0.160451 0.130285 0.067225 -0.073401 -0.122833 0.024661 0.094078 0.121931 0.053694 -0.051649 -0.214458 -0.058032 -0.294988 0.144751 0.148264 -0.092029 0.171605 -0.216140 0.036300 -0.082024 -0.079293 0.092325 0.064567 0.034076 0.165023 -0.176495 -0.188519 -0.084260 -0.043366 0.086151 -0.029264 0.017255 -0.017599 0.172445 0.150335 -0.044176 0.127465 0.089680 -0.021172 0.039464 -0.160156 0.043741 -0.031803 -0.002081 0.068163 0.104629 -0.061797 0.127393 0.083041 0.142933 -0.032191 0.122890 -0.034151 -0.121022 -0.027415 0.127850 -0.161245 0.047944 -0.006578 0.197460 -0.046089 -0.014512 -0.075433 -0.041915 0.032218 0.135304 0.127953 0.044968 -0.039592 0.076823 -0.016295 -0.062420 -0.018196 0.124173 -0.065168 -0.118996 -0.089095 0.104785 0.005287 0.070573 -0.002428 -0.036251 0.090059 0.050157 0.097038 0.067906 0.038683 0.029297 -0.140529 0.252029 -0.192932 
with 0.029350 -0.163251 -0.081139 -0.194766 -0.022383 0.091702 -0.080742 0.025477 -0.173209 0.075265 0.039358 -0.074455 0.004254 0.248103 0.153452 0.155602 -0.074246 0.113544 0.107813 0.071110 0.025968 0.049352 0.051790 -0.101159 0.066450 -0.013763 -0.081111 0.033675 0.125386 -0.117584 0.016397 0.060383 0.109757 0.042783 -0.011364 -0.093940 0.000717 0.115487 0.046001 0.001665 0.143988 0.085788 0.023833 0.041807 -0.127597 -0.028287 -0.190797 -0.048664 0.017564 -0.043183 0.003777 -0.040951 0.113812 -0.187466 -0.063056 -0.184188 0.010148 -0.004194 0.069130 0.162566 0.004122 0.136056 -0.040898 -0.026103 0.012571 -0.047660 0.038052 -0.044549 -0.060379 0.178929 0.029795 0.216462 0.016403 0.197681 -0.019335 0.055277 -0.040345 0.051637 0.069724 -0.113643 0.194675 0.155537 0.002931 0.011129 -0.040754 -0.010289 0.024080 0.051231 0.087205 -0.001781 -0.038675 0.086419 -0.158415 -0.030140 -0.027790 -0.032350 0.053775 0.058340 -0.036214 0.109418 -0.207369 0.096416 -0.016883 -0.060764 -0.099637 -0.150306 0.178621 0.037603 0.070561 -0.100186 -0.041894 -0.153659 0.049682 0.005580 0.067094 -0.011879 -0.091020 0.034329 -0.156473 -0.116875 -0.010453 -0.101867 0.036829 -0.000677 -0.028333 -0.072589 -0.050094 0.061184 0.021904 -0.062188 0.029989 -0.024417 -0.073001 -0.034060 -0.115371 -0.112375 0.022933 -0.017446 0.150863 -0.043214 -0.010346 -0.016243 -0.055670 0.189181 -0.078345 -0.050733 0.083847 0.070552 -0.052232 0.042918 -0.071000 0.038271 0.136807 -0.056155 -0.015352 0.014944 0.131017 0.025226 -0.089991 0.024921 0.073703 -0.014817 -0.050303 0.050460 0.054810 -0.062157 0.128528 0.099696 0.210289 -0.088211 0.154903 0.143166 -0.047656 0.157259 0.109835 -0.019752 -0.024646 -0.140914 -0.142937 -0.095440 -0.154598 0.037089 0.107077 -0.028981 0.208777 0.005851 0.114736 0.119601 0.033929 0.107971 0.082092 -0.006907 -0.018558 0.020808 -0.046881 0.075756 -0.010785 -0.110032 0.010005 -0.156090 
التي -0.121634 -0.045640 0.004236 -0.038948 -0.082023 0.018744 -0.018493 -0.023660 -0.025264 -0.066477 0.231310 0.046132 0.138125 -0.042549 0.019192 0.149821 0.075887 -0.133862 0.190134 0.006867 0.036838 0.121944 0.148051 0.114224 0.037027 -0.064487 0.137101 0.123313 0.054863 -0.159430 0.023700 0.033170 -0.058831 0.059920 -0.004329 0.114439 0.061978 -0.088256 0.124647 0.119544 0.002624 -0.010112 0.068328 0.034489 -0.195374 0.029751 0.007721 -0.076967 -0.020232 0.029584 0.056272 0.044714 0.007244 0.032640 0.064431 -0.139428 -0.122105 0.111402 -0.177548 -0.021283 -0.027132 0.107428 0.076964 -0.086322 0.185147 -0.082337 -0.091183 -0.012501 -0.150330 0.066182 0.020309 0.029643 -0.056322 0.063037 -0.123040 0.001058 -0.145497 0.032941 0.061878 0.043248 0.055081 0.010158 -0.194914 -0.058777 -0.039216 0.025582 -0.031844 -0.120417 -0.010145 -0.016053 0.065185 0.082779 -0.078658 -0.029731 -0.107682 0.068456 0.034648 0.086172 0.022026 0.042719 -0.221889 0.058078 -0.119721 0.054749 0.063601 -0.089888 -0.095070 0.030249 0.147691 -0.091746 -0.013313 0.048635 0.042917 -0.051604 -0.096073 0.144006 -0.155557 -0.079290 0.051632 -0.020712 0.033089 -0.130968 0.072740 -0.099511 -0.081398 -0.090247 -0.019501 -0.048947 -0.039618 -0.019555 0.005239 0.009812 0.098447 0.034983 -0.005782 -0.206245 -0.023973 -0.013082 0.166211 -0.079928 -0.143864 0.091431 -0.049502 0.117165 -0.090323 -0.004949 -0.083457 0.108180 0.114417 -0.165447 -0.018964 0.026121 0.061591 0.066312 -0.038588 0.000405 0.059576 -0.038598 -0.123020 -0.073832 -0.020396 -0.032611 0.062523 0.097133 0.105308 0.148738 0.130829 0.046988 -0.004638 0.016775 0.106056 0.019943 -0.065546 0.038904 0.017182 0.055663 -0.023869 -0.064518 -0.142100 0.101423 0.023988 0.101345 0.169667 -0.047751 -0.035603 0.053059 0.026088 -0.029102 0.064769 0.147838 0.042998 -0.166763 -0.133189 -0.008830 -0.180508 0.076301 0.060700 -0.065748 0.125668 0.002825 
